{"name": "tree", "version": "v4", "num_class": 1, "num_tree_per_iteration": 1, "label_index": 0, "max_feature_idx": 13, "objective": "binary sigmoid:1", "average_output": false, "feature_names": ["nativeProximity", "firstPhase", "max_chunk_sim_scores", "avg_top_3_chunk_text_scores", "avg_top_3_chunk_sim_scores", "nativeRank", "nativeFieldMatch", "elementSimilarity(chunks)", "bm25(chunks)", "max_chunk_text_scores", "fieldTermMatch(chunks,4).firstPosition", "fieldTermMatch(chunks,4).occurrences", "fieldTermMatch(chunks,4).weight", "term(3).significance"], "monotone_constraints": [], "feature_infos": {"nativeProximity": {"min_value": 0, "max_value": 0.1963793884211417, "values": []}, "firstPhase": {"min_value": -6.899171081524315, "max_value": 11.068658894319093, "values": []}, "max_chunk_sim_scores": {"min_value": 0.0477870777249336, "max_value": 0.44629320502281195, "values": []}, "avg_top_3_chunk_text_scores": {"min_value": 0, "max_value": 20.105823516845703, "values": []}, "avg_top_3_chunk_sim_scores": {"min_value": 0.0477870777249336, "max_value": 0.41347071528434753, "values": []}, "nativeRank": {"min_value": 0.0017429193899782, "max_value": 0.1726327599066356, "values": []}, "nativeFieldMatch": {"min_value": 0, "max_value": 0.3354072940571937, "values": []}, "elementSimilarity(chunks)": {"min_value": 0, "max_value": 0.7162878787878787, "values": []}, "bm25(chunks)": {"min_value": 0, "max_value": 25.045528963029376, "values": []}, "max_chunk_text_scores": {"min_value": 0, "max_value": 21.62700843811035, "values": []}, "fieldTermMatch(chunks,4).firstPosition": {"min_value": 0, "max_value": 1000000, "values": []}, "fieldTermMatch(chunks,4).occurrences": {"min_value": 0, "max_value": 14, "values": []}, "fieldTermMatch(chunks,4).weight": {"min_value": 0, "max_value": 14, "values": []}, "term(3).significance": {"min_value": 0.5243691519918386, "max_value": 0.6415808336946682, "values": []}}, "tree_info": [{"tree_index": 0, "num_leaves": 3, "num_cat": 0, "shrinkage": 1, "tree_structure": {"split_index": 0, "split_feature": 1, "split_gain": 64.056396484375, "threshold": -0.8514266904153667, "decision_type": "<=", "default_left": true, "missing_type": "None", "internal_value": 0.0850865, "internal_weight": 18.9708, "internal_count": 76, "left_child": {"leaf_index": 0, "leaf_value": -0.02561001587144149, "leaf_weight": 7.738081589341166, "leaf_count": 31}, "right_child": {"split_index": 1, "split_feature": 2, "split_gain": 1.001539945602417, "threshold": 0.2703396677970887, "decision_type": "<=", "default_left": true, "missing_type": "None", "internal_value": 0.161344, "internal_weight": 11.2327, "internal_count": 45, "left_child": {"leaf_index": 1, "leaf_value": 0.14465182290456635, "leaf_weight": 4.992310702800749, "leaf_count": 20}, "right_child": {"leaf_index": 2, "leaf_value": 0.17469802974739124, "leaf_weight": 6.240388378500938, "leaf_count": 25}}}}, {"tree_index": 1, "num_leaves": 3, "num_cat": 0, "shrinkage": 0.05, "tree_structure": {"split_index": 0, "split_feature": 0, "split_gain": 55.13560104370117, "threshold": 0.009389949465854402, "decision_type": "<=", "default_left": true, "missing_type": "None", "internal_value": 0.00630738, "internal_weight": 18.9252, "internal_count": 76, "left_child": {"leaf_index": 0, "leaf_value": -0.08828495192243914, "leaf_weight": 8.492295145988466, "leaf_count": 34}, "right_child": {"split_index": 1, "split_feature": 13, "split_gain": 0.3788689970970154, "threshold": 0.5534998606818834, "decision_type": "<=", "default_left": true, "missing_type": "None", "internal_value": 0.0833046, "internal_weight": 10.4329, "internal_count": 42, "left_child": {"leaf_index": 1, "leaf_value": 0.07331601655820764, "leaf_weight": 4.970514357089995, "leaf_count": 20}, "right_child": {"leaf_index": 2, "leaf_value": 0.09239366864678447, "leaf_weight": 5.462410569190979, "leaf_count": 22}}}}, {"tree_index": 2, "num_leaves": 3, "num_cat": 0, "shrinkage": 0.05, "tree_structure": {"split_index": 0, "split_feature": 1, "split_gain": 53.64149856567383, "threshold": -0.8514266904153667, "decision_type": "<=", "default_left": true, "missing_type": "None", "internal_value": 0.00603215, "internal_weight": 18.8232, "internal_count": 76, "left_child": {"leaf_index": 0, "leaf_value": -0.09512371734541346, "leaf_weight": 7.726254656910899, "leaf_count": 31}, "right_child": {"split_index": 1, "split_feature": 2, "split_gain": 0.8085060119628906, "threshold": 0.2703396677970887, "decision_type": "<=", "default_left": true, "missing_type": "None", "internal_value": 0.076462, "internal_weight": 11.0969, "internal_count": 45, "left_child": {"leaf_index": 1, "leaf_value": 0.06142537163541978, "leaf_weight": 4.9510844945907575, "leaf_count": 20}, "right_child": {"leaf_index": 2, "leaf_value": 0.08857550018118336, "leaf_weight": 6.145854219794273, "leaf_count": 25}}}}, {"tree_index": 3, "num_leaves": 3, "num_cat": 0, "shrinkage": 0.05, "tree_structure": {"split_index": 0, "split_feature": 1, "split_gain": 48.854400634765625, "threshold": -0.8514266904153667, "decision_type": "<=", "default_left": true, "missing_type": "None", "internal_value": 0.00578791, "internal_weight": 18.6542, "internal_count": 76, "left_child": {"leaf_index": 0, "leaf_value": -0.0910325248744549, "leaf_weight": 7.671106159687045, "leaf_count": 31}, "right_child": {"split_index": 1, "split_feature": 2, "split_gain": 0.7662590146064758, "threshold": 0.2703396677970887, "decision_type": "<=", "default_left": true, "missing_type": "None", "internal_value": 0.0734117, "internal_weight": 10.9831, "internal_count": 45, "left_child": {"leaf_index": 1, "leaf_value": 0.05874742439396546, "leaf_weight": 4.918742835521696, "leaf_count": 20}, "right_child": {"leaf_index": 2, "leaf_value": 0.08530574375972522, "leaf_weight": 6.06437124311924, "leaf_count": 25}}}}, {"tree_index": 4, "num_leaves": 3, "num_cat": 0, "shrinkage": 0.05, "tree_structure": {"split_index": 0, "split_feature": 1, "split_gain": 44.642398834228516, "threshold": -0.8514266904153667, "decision_type": "<=", "default_left": true, "missing_type": "None", "internal_value": 0.00556917, "internal_weight": 18.4318, "internal_count": 76, "left_child": {"leaf_index": 0, "leaf_value": -0.08746509900052929, "leaf_weight": 7.586848780512812, "leaf_count": 31}, "right_child": {"split_index": 1, "split_feature": 7, "split_gain": 0.7572479844093323, "threshold": 0.43669211725229157, "decision_type": "<=", "default_left": true, "missing_type": "None", "internal_value": 0.0706534, "internal_weight": 10.845, "internal_count": 45, "left_child": {"leaf_index": 1, "leaf_value": 0.056621038487729404, "leaf_weight": 5.096289485692976, "leaf_count": 21}, "right_child": {"leaf_index": 2, "leaf_value": 0.0830933700938888, "leaf_weight": 5.748680591583252, "leaf_count": 24}}}}, {"tree_index": 5, "num_leaves": 2, "num_cat": 0, "shrinkage": 0.05, "tree_structure": {"split_index": 0, "split_feature": 8, "split_gain": 34.91630172729492, "threshold": 4.897430422625162, "decision_type": "<=", "default_left": true, "missing_type": "None", "internal_value": 0.0018381, "internal_weight": 17.4439, "internal_count": 73, "left_child": {"leaf_index": 0, "leaf_value": -0.06921014375475512, "leaf_weight": 8.68397679924965, "leaf_count": 36}, "right_child": {"leaf_index": 1, "leaf_value": 0.07227006256963943, "leaf_weight": 8.75996136665344, "leaf_count": 37}}}, {"tree_index": 6, "num_leaves": 3, "num_cat": 0, "shrinkage": 0.05, "tree_structure": {"split_index": 0, "split_feature": 0, "split_gain": 33.23910140991211, "threshold": 0.009389949465854402, "decision_type": "<=", "default_left": true, "missing_type": "None", "internal_value": 0.00177517, "internal_weight": 17.2281, "internal_count": 73, "left_child": {"leaf_index": 0, "leaf_value": -0.07825158987238978, "leaf_weight": 7.401166677474978, "leaf_count": 31}, "right_child": {"split_index": 1, "split_feature": 10, "split_gain": 1.6139500141143799, "threshold": 88.00000000000001, "decision_type": "<=", "default_left": true, "missing_type": "None", "internal_value": 0.0620471, "internal_weight": 9.82698, "internal_count": 42, "left_child": {"leaf_index": 1, "leaf_value": 0.04081466033406883, "leaf_weight": 4.684038519859312, "leaf_count": 20}, "right_child": {"leaf_index": 2, "leaf_value": 0.08138506821182973, "leaf_weight": 5.142940700054169, "leaf_count": 22}}}}, {"tree_index": 7, "num_leaves": 3, "num_cat": 0, "shrinkage": 0.05, "tree_structure": {"split_index": 0, "split_feature": 0, "split_gain": 30.498600006103516, "threshold": 0.009389949465854402, "decision_type": "<=", "default_left": true, "missing_type": "None", "internal_value": 0.0017147, "internal_weight": 16.9614, "internal_count": 73, "left_child": {"leaf_index": 0, "leaf_value": -0.07557330255050479, "leaf_weight": 7.283258423209193, "leaf_count": 31}, "right_child": {"split_index": 1, "split_feature": 0, "split_gain": 1.4734300374984741, "threshold": 0.054254431026992705, "decision_type": "<=", "default_left": true, "missing_type": "None", "internal_value": 0.0598775, "internal_weight": 9.67816, "internal_count": 42, "left_child": {"leaf_index": 1, "leaf_value": 0.03961362792439307, "leaf_weight": 4.655505478382109, "leaf_count": 20}, "right_child": {"leaf_index": 2, "leaf_value": 0.07866001160578076, "leaf_weight": 5.022656694054604, "leaf_count": 22}}}}, {"tree_index": 8, "num_leaves": 2, "num_cat": 0, "shrinkage": 0.05, "tree_structure": {"split_index": 0, "split_feature": 8, "split_gain": 28.478099822998047, "threshold": 4.897430422625162, "decision_type": "<=", "default_left": true, "missing_type": "None", "internal_value": 0.00165886, "internal_weight": 16.6706, "internal_count": 73, "left_child": {"leaf_index": 0, "leaf_value": -0.06356509384920615, "leaf_weight": 8.351466521620752, "leaf_count": 36}, "right_child": {"leaf_index": 1, "leaf_value": 0.06713652139182197, "leaf_weight": 8.319107085466383, "leaf_count": 37}}}, {"tree_index": 9, "num_leaves": 3, "num_cat": 0, "shrinkage": 0.05, "tree_structure": {"split_index": 0, "split_feature": 0, "split_gain": 26.571699142456055, "threshold": 0.009389949465854402, "decision_type": "<=", "default_left": true, "missing_type": "None", "internal_value": 0.00160871, "internal_weight": 16.4005, "internal_count": 73, "left_child": {"leaf_index": 0, "leaf_value": -0.0717674169056761, "leaf_weight": 7.041091322898867, "leaf_count": 31}, "right_child": {"split_index": 1, "split_feature": 10, "split_gain": 1.561210036277771, "threshold": 88.00000000000001, "decision_type": "<=", "default_left": true, "missing_type": "None", "internal_value": 0.0568097, "internal_weight": 9.35939, "internal_count": 42, "left_child": {"leaf_index": 1, "leaf_value": 0.035568490514893324, "leaf_weight": 4.495491519570349, "leaf_count": 20}, "right_child": {"leaf_index": 2, "leaf_value": 0.07644211478561144, "leaf_weight": 4.863899782299995, "leaf_count": 22}}}}, {"tree_index": 10, "num_leaves": 3, "num_cat": 0, "shrinkage": 0.05, "tree_structure": {"split_index": 0, "split_feature": 0, "split_gain": 26.332700729370117, "threshold": 0.009389949465854402, "decision_type": "<=", "default_left": true, "missing_type": "None", "internal_value": -0.00226642, "internal_weight": 17.883, "internal_count": 81, "left_child": {"leaf_index": 0, "leaf_value": -0.06614177019970854, "leaf_weight": 8.482036128640177, "leaf_count": 38}, "right_child": {"split_index": 1, "split_feature": 0, "split_gain": 1.4683599472045898, "threshold": 0.05322861860812996, "decision_type": "<=", "default_left": true, "missing_type": "None", "internal_value": 0.0553653, "internal_weight": 9.40095, "internal_count": 43, "left_child": {"leaf_index": 1, "leaf_value": 0.03460613515145179, "leaf_weight": 4.468946844339369, "leaf_count": 20}, "right_child": {"leaf_index": 2, "leaf_value": 0.07417536429476476, "leaf_weight": 4.932007551193237, "leaf_count": 23}}}}, {"tree_index": 11, "num_leaves": 3, "num_cat": 0, "shrinkage": 0.05, "tree_structure": {"split_index": 0, "split_feature": 1, "split_gain": 24.763399124145508, "threshold": -1.2822456700497205, "decision_type": "<=", "default_left": true, "missing_type": "None", "internal_value": -0.00219636, "internal_weight": 17.5294, "internal_count": 81, "left_child": {"leaf_index": 0, "leaf_value": -0.07392693967530946, "leaf_weight": 7.134807437658313, "leaf_count": 33}, "right_child": {"split_index": 1, "split_feature": 0, "split_gain": 3.5005300045013428, "threshold": 0.03895211516568561, "decision_type": "<=", "default_left": true, "missing_type": "None", "internal_value": 0.0470391, "internal_weight": 10.3946, "internal_count": 48, "left_child": {"leaf_index": 1, "leaf_value": 0.014007936500491834, "leaf_weight": 4.5273955017328245, "leaf_count": 20}, "right_child": {"leaf_index": 2, "leaf_value": 0.0725274328127451, "leaf_weight": 5.867215424776077, "leaf_count": 28}}}}, {"tree_index": 12, "num_leaves": 3, "num_cat": 0, "shrinkage": 0.05, "tree_structure": {"split_index": 0, "split_feature": 1, "split_gain": 22.919700622558594, "threshold": -1.2822456700497205, "decision_type": "<=", "default_left": true, "missing_type": "None", "internal_value": -0.0021348, "internal_weight": 17.1558, "internal_count": 81, "left_child": {"leaf_index": 0, "leaf_value": -0.07224702074691487, "leaf_weight": 6.9405953288078335, "leaf_count": 33}, "right_child": {"split_index": 1, "split_feature": 0, "split_gain": 3.3500499725341797, "threshold": 0.03895211516568561, "decision_type": "<=", "default_left": true, "missing_type": "None", "internal_value": 0.0455021, "internal_weight": 10.2152, "internal_count": 48, "left_child": {"leaf_index": 1, "leaf_value": 0.013339964420745663, "leaf_weight": 4.516670957207678, "leaf_count": 20}, "right_child": {"leaf_index": 2, "leaf_value": 0.07099383933929332, "leaf_weight": 5.698536247014999, "leaf_count": 28}}}}, {"tree_index": 13, "num_leaves": 3, "num_cat": 0, "shrinkage": 0.05, "tree_structure": {"split_index": 0, "split_feature": 0, "split_gain": 21.305599212646484, "threshold": 0.009389949465854402, "decision_type": "<=", "default_left": true, "missing_type": "None", "internal_value": -0.00207726, "internal_weight": 16.7741, "internal_count": 81, "left_child": {"leaf_index": 0, "leaf_value": -0.06158502166421176, "leaf_weight": 7.93025800585747, "leaf_count": 38}, "right_child": {"split_index": 1, "split_feature": 10, "split_gain": 1.2788000106811523, "threshold": 88.00000000000001, "decision_type": "<=", "default_left": true, "missing_type": "None", "internal_value": 0.0512833, "internal_weight": 8.84384, "internal_count": 43, "left_child": {"leaf_index": 1, "leaf_value": 0.03303689115134798, "leaf_weight": 4.60380697250366, "leaf_count": 22}, "right_child": {"leaf_index": 2, "leaf_value": 0.07109505583996707, "leaf_weight": 4.240033984184265, "leaf_count": 21}}}}, {"tree_index": 14, "num_leaves": 3, "num_cat": 0, "shrinkage": 0.05, "tree_structure": {"split_index": 0, "split_feature": 8, "split_gain": 20.00749969482422, "threshold": 5.553335928801926, "decision_type": "<=", "default_left": true, "missing_type": "None", "internal_value": -0.00201808, "internal_weight": 16.4085, "internal_count": 81, "left_child": {"split_index": 1, "split_feature": 3, "split_gain": 1.8122999668121338, "threshold": 2.1192799806594853, "decision_type": "<=", "default_left": true, "missing_type": "None", "internal_value": -0.0516999, "internal_weight": 9.06689, "internal_count": 44, "left_child": {"leaf_index": 0, "leaf_value": -0.07354714042004987, "leaf_weight": 4.637395709753038, "leaf_count": 23}, "right_child": {"leaf_index": 2, "leaf_value": -0.02882727688952602, "leaf_weight": 4.429491326212883, "leaf_count": 21}}, "right_child": {"leaf_index": 1, "leaf_value": 0.0593392588568204, "leaf_weight": 7.341577246785163, "leaf_count": 37}}}, {"tree_index": 15, "num_leaves": 3, "num_cat": 0, "shrinkage": 0.05, "tree_structure": {"split_index": 0, "split_feature": 1, "split_gain": 23.458099365234375, "threshold": -0.8514266904153667, "decision_type": "<=", "default_left": true, "missing_type": "None", "internal_value": -0.000987728, "internal_weight": 16.3741, "internal_count": 83, "left_child": {"leaf_index": 0, "leaf_value": -0.06868794647335905, "leaf_weight": 7.1826088726520565, "leaf_count": 37}, "right_child": {"split_index": 1, "split_feature": 5, "split_gain": 0.9899010062217712, "threshold": 0.05055302274391571, "decision_type": "<=", "default_left": true, "missing_type": "None", "internal_value": 0.0519158, "internal_weight": 9.19152, "internal_count": 46, "left_child": {"leaf_index": 1, "leaf_value": 0.03432693294061148, "leaf_weight": 4.2770491242408735, "leaf_count": 20}, "right_child": {"leaf_index": 2, "leaf_value": 0.06722337176433477, "leaf_weight": 4.914473682641983, "leaf_count": 26}}}}, {"tree_index": 16, "num_leaves": 3, "num_cat": 0, "shrinkage": 0.05, "tree_structure": {"split_index": 0, "split_feature": 1, "split_gain": 21.81410026550293, "threshold": -0.8514266904153667, "decision_type": "<=", "default_left": true, "missing_type": "None", "internal_value": -0.000969302, "internal_weight": 15.9384, "internal_count": 83, "left_child": {"leaf_index": 0, "leaf_value": -0.06747169947976688, "leaf_weight": 6.95231829583645, "leaf_count": 37}, "right_child": {"split_index": 1, "split_feature": 6, "split_gain": 1.04544997215271, "threshold": 0.09532265323692281, "decision_type": "<=", "default_left": true, "missing_type": "None", "internal_value": 0.0504818, "internal_weight": 8.98613, "internal_count": 46, "left_child": {"leaf_index": 1, "leaf_value": 0.03221487395763561, "leaf_weight": 4.184945836663244, "leaf_count": 20}, "right_child": {"leaf_index": 2, "leaf_value": 0.06640408559574137, "leaf_weight": 4.801181316375732, "leaf_count": 26}}}}, {"tree_index": 17, "num_leaves": 3, "num_cat": 0, "shrinkage": 0.05, "tree_structure": {"split_index": 0, "split_feature": 4, "split_gain": 19.20789909362793, "threshold": 0.21000036224722865, "decision_type": "<=", "default_left": true, "missing_type": "None", "internal_value": -0.000952133, "internal_weight": 15.5039, "internal_count": 83, "left_child": {"leaf_index": 0, "leaf_value": -0.060982896369603926, "leaf_weight": 7.1660966128110895, "leaf_count": 39}, "right_child": {"split_index": 1, "split_feature": 2, "split_gain": 0.7232969999313354, "threshold": 0.2739932984113694, "decision_type": "<=", "default_left": true, "missing_type": "None", "internal_value": 0.0506426, "internal_weight": 8.33779, "internal_count": 44, "left_child": {"leaf_index": 1, "leaf_value": 0.03566385584359194, "leaf_weight": 4.09812320768833, "leaf_count": 20}, "right_child": {"leaf_index": 2, "leaf_value": 0.06512132003404142, "leaf_weight": 4.23966658115387, "leaf_count": 24}}}}, {"tree_index": 18, "num_leaves": 3, "num_cat": 0, "shrinkage": 0.05, "tree_structure": {"split_index": 0, "split_feature": 1, "split_gain": 19.088899612426758, "threshold": -0.8514266904153667, "decision_type": "<=", "default_left": true, "missing_type": "None", "internal_value": -0.000928073, "internal_weight": 15.1226, "internal_count": 83, "left_child": {"leaf_index": 0, "leaf_value": -0.06545576300247534, "leaf_weight": 6.51987060904503, "leaf_count": 37}, "right_child": {"split_index": 1, "split_feature": 0, "split_gain": 1.102329969406128, "threshold": 0.03895211516568561, "decision_type": "<=", "default_left": true, "missing_type": "None", "internal_value": 0.0479763, "internal_weight": 8.60276, "internal_count": 46, "left_child": {"leaf_index": 1, "leaf_value": 0.02858676573005489, "leaf_weight": 3.957839280366896, "leaf_count": 19}, "right_child": {"leaf_index": 2, "leaf_value": 0.06449767074693122, "leaf_weight": 4.644917890429497, "leaf_count": 27}}}}, {"tree_index": 19, "num_leaves": 3, "num_cat": 0, "shrinkage": 0.05, "tree_structure": {"split_index": 0, "split_feature": 1, "split_gain": 17.79450035095215, "threshold": -0.8514266904153667, "decision_type": "<=", "default_left": true, "missing_type": "None", "internal_value": -0.000912889, "internal_weight": 14.693200000000001, "internal_count": 83, "left_child": {"leaf_index": 0, "leaf_value": -0.06449508501139074, "leaf_weight": 6.291915446519853, "leaf_count": 37}, "right_child": {"split_index": 1, "split_feature": 0, "split_gain": 1.0953700542449951, "threshold": 0.03895211516568561, "decision_type": "<=", "default_left": true, "missing_type": "None", "internal_value": 0.0467053, "internal_weight": 8.40128, "internal_count": 46, "left_child": {"leaf_index": 1, "leaf_value": 0.027411453618591253, "leaf_weight": 3.9220899492502195, "leaf_count": 19}, "right_child": {"leaf_index": 2, "leaf_value": 0.0635994234315956, "leaf_weight": 4.479194402694702, "leaf_count": 27}}}}, {"tree_index": 20, "num_leaves": 3, "num_cat": 0, "shrinkage": 0.05, "tree_structure": {"split_index": 0, "split_feature": 1, "split_gain": 17.61280059814453, "threshold": -0.16625589500171412, "decision_type": "<=", "default_left": true, "missing_type": "None", "internal_value": 0.00779463, "internal_weight": 13.2912, "internal_count": 78, "left_child": {"leaf_index": 0, "leaf_value": -0.0549177533390376, "leaf_weight": 6.0769656002521515, "leaf_count": 36}, "right_child": {"split_index": 1, "split_feature": 13, "split_gain": 0.028606899082660675, "threshold": 0.5534998606818834, "decision_type": "<=", "default_left": true, "missing_type": "None", "internal_value": 0.060621, "internal_weight": 7.21422, "internal_count": 42, "left_child": {"leaf_index": 1, "leaf_value": 0.05733483575772644, "leaf_weight": 3.452879413962364, "leaf_count": 19}, "right_child": {"leaf_index": 2, "leaf_value": 0.06363770846018506, "leaf_weight": 3.7613362818956375, "leaf_count": 23}}}}, {"tree_index": 21, "num_leaves": 3, "num_cat": 0, "shrinkage": 0.05, "tree_structure": {"split_index": 0, "split_feature": 2, "split_gain": 14.1451997756958, "threshold": 0.21025777608156207, "decision_type": "<=", "default_left": true, "missing_type": "None", "internal_value": 0.00763799, "internal_weight": 12.9012, "internal_count": 78, "left_child": {"leaf_index": 0, "leaf_value": -0.057082205945706004, "leaf_weight": 5.103049457073212, "leaf_count": 32}, "right_child": {"split_index": 1, "split_feature": 7, "split_gain": 0.7669020295143127, "threshold": 0.42440649477894216, "decision_type": "<=", "default_left": true, "missing_type": "None", "internal_value": 0.0499903, "internal_weight": 7.79816, "internal_count": 46, "left_child": {"leaf_index": 1, "leaf_value": 0.033522032814892244, "leaf_weight": 3.707960546016693, "leaf_count": 20}, "right_child": {"leaf_index": 2, "leaf_value": 0.06491961444451516, "leaf_weight": 4.090200990438461, "leaf_count": 26}}}}, {"tree_index": 22, "num_leaves": 3, "num_cat": 0, "shrinkage": 0.05, "tree_structure": {"split_index": 0, "split_feature": 4, "split_gain": 15.54889965057373, "threshold": 0.21000036224722865, "decision_type": "<=", "default_left": true, "missing_type": "None", "internal_value": 0.00746514, "internal_weight": 12.5464, "internal_count": 78, "left_child": {"leaf_index": 0, "leaf_value": -0.05533994263047818, "leaf_weight": 5.519460007548332, "leaf_count": 35}, "right_child": {"split_index": 1, "split_feature": 7, "split_gain": 0.1611189991235733, "threshold": 0.4472915217223253, "decision_type": "<=", "default_left": true, "missing_type": "None", "internal_value": 0.0567968, "internal_weight": 7.02692, "internal_count": 43, "left_child": {"leaf_index": 1, "leaf_value": 0.04954358167705248, "leaf_weight": 3.6640677005052567, "leaf_count": 21}, "right_child": {"leaf_index": 2, "leaf_value": 0.06469977489864305, "leaf_weight": 3.3628560453653336, "leaf_count": 22}}}}, {"tree_index": 23, "num_leaves": 3, "num_cat": 0, "shrinkage": 0.05, "tree_structure": {"split_index": 0, "split_feature": 1, "split_gain": 14.594900131225586, "threshold": -0.16625589500171412, "decision_type": "<=", "default_left": true, "missing_type": "None", "internal_value": 0.00730623, "internal_weight": 12.1902, "internal_count": 78, "left_child": {"leaf_index": 0, "leaf_value": -0.052022967474109505, "leaf_weight": 5.602112382650375, "leaf_count": 36}, "right_child": {"split_index": 1, "split_feature": 13, "split_gain": 0.03831389918923378, "threshold": 0.5534998606818834, "decision_type": "<=", "default_left": true, "missing_type": "None", "internal_value": 0.0577563, "internal_weight": 6.58807, "internal_count": 42, "left_child": {"leaf_index": 1, "leaf_value": 0.05384499439460232, "leaf_weight": 3.210208147764206, "leaf_count": 19}, "right_child": {"leaf_index": 2, "leaf_value": 0.061473506963629715, "leaf_weight": 3.3778651133179665, "leaf_count": 23}}}}, {"tree_index": 24, "num_leaves": 3, "num_cat": 0, "shrinkage": 0.05, "tree_structure": {"split_index": 0, "split_feature": 1, "split_gain": 13.606599807739258, "threshold": -0.16625589500171412, "decision_type": "<=", "default_left": true, "missing_type": "None", "internal_value": 0.00716619, "internal_weight": 11.823, "internal_count": 78, "left_child": {"leaf_index": 0, "leaf_value": -0.05084478563348949, "leaf_weight": 5.449242532253265, "leaf_count": 36}, "right_child": {"split_index": 1, "split_feature": 13, "split_gain": 0.04318990185856819, "threshold": 0.5534998606818834, "decision_type": "<=", "default_left": true, "missing_type": "None", "internal_value": 0.0567629, "internal_weight": 6.37373, "internal_count": 42, "left_child": {"leaf_index": 1, "leaf_value": 0.05256753522736965, "leaf_weight": 3.125964492559433, "leaf_count": 19}, "right_child": {"leaf_index": 2, "leaf_value": 0.0608008305454701, "leaf_weight": 3.247769348323345, "leaf_count": 23}}}}, {"tree_index": 25, "num_leaves": 3, "num_cat": 0, "shrinkage": 0.05, "tree_structure": {"split_index": 0, "split_feature": 6, "split_gain": 12.74120044708252, "threshold": 0.07164358205576742, "decision_type": "<=", "default_left": true, "missing_type": "None", "internal_value": -0.00630937, "internal_weight": 11.9559, "internal_count": 81, "left_child": {"split_index": 1, "split_feature": 3, "split_gain": 1.2279000282287598, "threshold": 2.307221412658692, "decision_type": "<=", "default_left": true, "missing_type": "None", "internal_value": -0.0504166, "internal_weight": 6.91005, "internal_count": 46, "left_child": {"leaf_index": 0, "leaf_value": -0.06848767864387684, "leaf_weight": 3.9825156182050705, "leaf_count": 28}, "right_child": {"leaf_index": 2, "leaf_value": -0.025833456485813262, "leaf_weight": 2.9275382459163666, "leaf_count": 18}}, "right_child": {"leaf_index": 1, "leaf_value": 0.05409343339689743, "leaf_weight": 5.045852437615395, "leaf_count": 35}}}, {"tree_index": 26, "num_leaves": 3, "num_cat": 0, "shrinkage": 0.05, "tree_structure": {"split_index": 0, "split_feature": 5, "split_gain": 12.391400337219238, "threshold": 0.041607526405732655, "decision_type": "<=", "default_left": true, "missing_type": "None", "internal_value": -0.00616973, "internal_weight": 11.6243, "internal_count": 81, "left_child": {"split_index": 1, "split_feature": 3, "split_gain": 2.018320083618164, "threshold": 2.567484170198441, "decision_type": "<=", "default_left": true, "missing_type": "None", "internal_value": -0.0456643, "internal_weight": 7.33252, "internal_count": 49, "left_child": {"leaf_index": 0, "leaf_value": -0.06650935945316083, "leaf_weight": 4.49451807141304, "leaf_count": 33}, "right_child": {"leaf_index": 2, "leaf_value": -0.012652158582049003, "leaf_weight": 2.8380055278539658, "leaf_count": 16}}, "right_child": {"leaf_index": 1, "leaf_value": 0.06130762967356099, "leaf_weight": 4.291732296347618, "leaf_count": 32}}}, {"tree_index": 27, "num_leaves": 3, "num_cat": 0, "shrinkage": 0.05, "tree_structure": {"split_index": 0, "split_feature": 5, "split_gain": 11.57699966430664, "threshold": 0.041607526405732655, "decision_type": "<=", "default_left": true, "missing_type": "None", "internal_value": -0.00604429, "internal_weight": 11.278, "internal_count": 81, "left_child": {"split_index": 1, "split_feature": 3, "split_gain": 1.9842599630355835, "threshold": 2.567484170198441, "decision_type": "<=", "default_left": true, "missing_type": "None", "internal_value": -0.0444948, "internal_weight": 7.15562, "internal_count": 49, "left_child": {"leaf_index": 0, "leaf_value": -0.06584177818312148, "leaf_weight": 4.317566208541393, "leaf_count": 33}, "right_child": {"leaf_index": 2, "leaf_value": -0.012019356256003935, "leaf_weight": 2.838050127029419, "leaf_count": 16}}, "right_child": {"leaf_index": 1, "leaf_value": 0.06069860803847678, "leaf_weight": 4.122343026101589, "leaf_count": 32}}}, {"tree_index": 28, "num_leaves": 3, "num_cat": 0, "shrinkage": 0.05, "tree_structure": {"split_index": 0, "split_feature": 5, "split_gain": 10.819600105285645, "threshold": 0.041607526405732655, "decision_type": "<=", "default_left": true, "missing_type": "None", "internal_value": -0.00592178, "internal_weight": 10.9413, "internal_count": 81, "left_child": {"split_index": 1, "split_feature": 3, "split_gain": 1.9500199556350708, "threshold": 2.567484170198441, "decision_type": "<=", "default_left": true, "missing_type": "None", "internal_value": -0.0433511, "internal_weight": 6.9837299999999995, "internal_count": 49, "left_child": {"leaf_index": 0, "leaf_value": -0.06521147330224622, "leaf_weight": 4.145686060190201, "leaf_count": 33}, "right_child": {"leaf_index": 2, "leaf_value": -0.011418430163360365, "leaf_weight": 2.838039979338646, "leaf_count": 16}}, "right_child": {"leaf_index": 1, "leaf_value": 0.06012761468230158, "leaf_weight": 3.9575867354869843, "leaf_count": 32}}}, {"tree_index": 29, "num_leaves": 3, "num_cat": 0, "shrinkage": 0.05, "tree_structure": {"split_index": 0, "split_feature": 5, "split_gain": 10.114500045776367, "threshold": 0.041607526405732655, "decision_type": "<=", "default_left": true, "missing_type": "None", "internal_value": -0.00580183, "internal_weight": 10.6146, "internal_count": 81, "left_child": {"split_index": 1, "split_feature": 3, "split_gain": 1.9155000448226929, "threshold": 2.567484170198441, "decision_type": "<=", "default_left": true, "missing_type": "None", "internal_value": -0.0422309, "internal_weight": 6.81698, "internal_count": 49, "left_child": {"leaf_index": 0, "leaf_value": -0.06461468890104487, "leaf_weight": 3.978998087346554, "leaf_count": 33}, "right_child": {"leaf_index": 2, "leaf_value": -0.010847733113693681, "leaf_weight": 2.8379823714494705, "leaf_count": 16}}, "right_child": {"leaf_index": 1, "leaf_value": 0.05959162433637243, "leaf_weight": 3.797573961317539, "leaf_count": 32}}}, {"tree_index": 30, "num_leaves": 3, "num_cat": 0, "shrinkage": 0.05, "tree_structure": {"split_index": 0, "split_feature": 1, "split_gain": 14.061599731445312, "threshold": -0.8514266904153667, "decision_type": "<=", "default_left": true, "missing_type": "None", "internal_value": 0.0115944, "internal_weight": 9.98987, "internal_count": 82, "left_child": {"leaf_index": 0, "leaf_value": -0.0584204657846713, "leaf_weight": 4.174542851746082, "leaf_count": 36}, "right_child": {"split_index": 1, "split_feature": 1, "split_gain": 0.06297139823436737, "threshold": 1.4655756532132311, "decision_type": "<=", "default_left": true, "missing_type": "None", "internal_value": 0.0618546, "internal_weight": 5.81533, "internal_count": 46, "left_child": {"leaf_index": 1, "leaf_value": 0.06763650481246077, "leaf_weight": 2.6020611971616745, "leaf_count": 16}, "right_child": {"leaf_index": 2, "leaf_value": 0.05717253010582109, "leaf_weight": 3.213270679116249, "leaf_count": 30}}}}, {"tree_index": 31, "num_leaves": 3, "num_cat": 0, "shrinkage": 0.05, "tree_structure": {"split_index": 0, "split_feature": 1, "split_gain": 13.24370002746582, "threshold": -0.8514266904153667, "decision_type": "<=", "default_left": true, "missing_type": "None", "internal_value": 0.0114812, "internal_weight": 9.59204, "internal_count": 82, "left_child": {"leaf_index": 0, "leaf_value": -0.057955441230632745, "leaf_weight": 4.002001956105232, "leaf_count": 36}, "right_child": {"split_index": 1, "split_feature": 1, "split_gain": 0.053381599485874176, "threshold": 1.4655756532132311, "decision_type": "<=", "default_left": true, "missing_type": "None", "internal_value": 0.061192, "internal_weight": 5.59004, "internal_count": 46, "left_child": {"leaf_index": 1, "leaf_value": 0.06659923942190066, "leaf_weight": 2.512724332511425, "leaf_count": 16}, "right_child": {"leaf_index": 2, "leaf_value": 0.05677690116536657, "leaf_weight": 3.0773161202669144, "leaf_count": 30}}}}, {"tree_index": 32, "num_leaves": 3, "num_cat": 0, "shrinkage": 0.05, "tree_structure": {"split_index": 0, "split_feature": 1, "split_gain": 12.480199813842773, "threshold": -0.8514266904153667, "decision_type": "<=", "default_left": true, "missing_type": "None", "internal_value": 0.0113751, "internal_weight": 9.20543, "internal_count": 82, "left_child": {"leaf_index": 0, "leaf_value": -0.05751911364501638, "leaf_weight": 3.834967575967312, "leaf_count": 36}, "right_child": {"split_index": 1, "split_feature": 1, "split_gain": 0.04530389979481697, "threshold": 1.4655756532132311, "decision_type": "<=", "default_left": true, "missing_type": "None", "internal_value": 0.0605715, "internal_weight": 5.37046, "internal_count": 46, "left_child": {"leaf_index": 1, "leaf_value": 0.06563376900227359, "leaf_weight": 2.424441047012806, "leaf_count": 16}, "right_child": {"leaf_index": 2, "leaf_value": 0.05640550273592694, "leaf_weight": 2.946019433438778, "leaf_count": 30}}}}, {"tree_index": 33, "num_leaves": 3, "num_cat": 0, "shrinkage": 0.05, "tree_structure": {"split_index": 0, "split_feature": 1, "split_gain": 11.766500473022461, "threshold": -0.8514266904153667, "decision_type": "<=", "default_left": true, "missing_type": "None", "internal_value": 0.0112756, "internal_weight": 8.83023, "internal_count": 82, "left_child": {"leaf_index": 0, "leaf_value": -0.05710937965636839, "leaf_weight": 3.673442855477333, "leaf_count": 36}, "right_child": {"split_index": 1, "split_feature": 1, "split_gain": 0.03848839923739433, "threshold": 1.4655756532132311, "decision_type": "<=", "default_left": true, "missing_type": "None", "internal_value": 0.0599898, "internal_weight": 5.15679, "internal_count": 46, "left_child": {"leaf_index": 1, "leaf_value": 0.06473379491519897, "leaf_weight": 2.337445706129074, "leaf_count": 16}, "right_child": {"leaf_index": 2, "leaf_value": 0.056056589370399625, "leaf_weight": 2.8193410709500313, "leaf_count": 30}}}}, {"tree_index": 34, "num_leaves": 3, "num_cat": 0, "shrinkage": 0.05, "tree_structure": {"split_index": 0, "split_feature": 1, "split_gain": 11.098899841308594, "threshold": -0.8514266904153667, "decision_type": "<=", "default_left": true, "missing_type": "None", "internal_value": 0.0111822, "internal_weight": 8.46657, "internal_count": 82, "left_child": {"leaf_index": 0, "leaf_value": -0.05672431982333709, "leaf_weight": 3.517405927181244, "leaf_count": 36}, "right_child": {"split_index": 1, "split_feature": 0, "split_gain": 0.03288780152797699, "threshold": 0.03895211516568561, "decision_type": "<=", "default_left": true, "missing_type": "None", "internal_value": 0.0594438, "internal_weight": 4.94916, "internal_count": 46, "left_child": {"leaf_index": 1, "leaf_value": 0.0640661632870125, "leaf_weight": 2.164885215461254, "leaf_count": 15}, "right_child": {"leaf_index": 2, "leaf_value": 0.05584979716391319, "leaf_weight": 2.784276619553566, "leaf_count": 31}}}}], "feature_importances": {"nativeProximity": 13, "firstPhase": 22, "max_chunk_sim_scores": 5, "avg_top_3_chunk_text_scores": 6, "avg_top_3_chunk_sim_scores": 2, "nativeRank": 5, "nativeFieldMatch": 2, "elementSimilarity(chunks)": 3, "bm25(chunks)": 3, "fieldTermMatch(chunks,4).firstPosition": 3, "term(3).significance": 4}, "pandas_categorical": []}