{"name": "tree", "version": "v4", "num_class": 1, "num_tree_per_iteration": 1, "label_index": 0, "max_feature_idx": 11, "objective": "binary sigmoid:1", "average_output": false, "feature_names": ["nativeProximity", "max_chunk_sim_scores", "avg_top_3_chunk_sim_scores", "nativeFieldMatch", "firstPhase", "avg_top_3_chunk_text_scores", "elementSimilarity(chunks)", "fieldMatch(title).earliness", "fieldMatch(title).longestSequenceRatio", "modified_freshness", "bm25(title)", "open_count"], "monotone_constraints": [], "feature_infos": {"nativeProximity": {"min_value": 0, "max_value": 0.1963793884211417, "values": []}, "max_chunk_sim_scores": {"min_value": 0.0605697482824325, "max_value": 0.44629320502281195, "values": []}, "avg_top_3_chunk_sim_scores": {"min_value": 0.0586561011150479, "max_value": 0.41347071528434753, "values": []}, "nativeFieldMatch": {"min_value": 0, "max_value": 0.3354072940571937, "values": []}, "firstPhase": {"min_value": -3.597503691227734, "max_value": 14.4898094555166, "values": []}, "avg_top_3_chunk_text_scores": {"min_value": 0, "max_value": 20.105823516845703, "values": []}, "elementSimilarity(chunks)": {"min_value": 0, "max_value": 0.7162878787878787, "values": []}, "fieldMatch(title).earliness": {"min_value": 0, "max_value": 1, "values": []}, "fieldMatch(title).longestSequenceRatio": {"min_value": 0, "max_value": 1, "values": []}, "modified_freshness": {"min_value": 0, "max_value": 0.6570399206530282, "values": []}, "bm25(title)": {"min_value": 0, "max_value": 10.04670301111512, "values": []}, "open_count": {"min_value": 1, "max_value": 45, "values": []}}, "tree_info": [{"tree_index": 0, "num_leaves": 3, "num_cat": 0, "shrinkage": 1, "tree_structure": {"split_index": 0, "split_feature": 2, "split_gain": 57.484500885009766, "threshold": 0.1877933777868748, "decision_type": "<=", "default_left": true, "missing_type": "None", "internal_value": 0.122443, "internal_weight": 18.9343, "internal_count": 76, "left_child": {"leaf_index": 0, "leaf_value": 0.011533027806110124, "leaf_weight": 7.224913343787196, "leaf_count": 29}, "right_child": {"split_index": 1, "split_feature": 0, "split_gain": 2.882309913635254, "threshold": 0.043518011518638856, "decision_type": "<=", "default_left": true, "missing_type": "None", "internal_value": 0.190877, "internal_weight": 11.7093, "internal_count": 47, "left_child": {"leaf_index": 1, "leaf_value": 0.16205386877165365, "leaf_weight": 4.9826988577842695, "leaf_count": 20}, "right_child": {"leaf_index": 2, "leaf_value": 0.2122274824268348, "leaf_weight": 6.726643458008766, "leaf_count": 27}}}}, {"tree_index": 1, "num_leaves": 3, "num_cat": 0, "shrinkage": 0.05, "tree_structure": {"split_index": 0, "split_feature": 2, "split_gain": 51.909000396728516, "threshold": 0.1877933777868748, "decision_type": "<=", "default_left": true, "missing_type": "None", "internal_value": 0.00444827, "internal_weight": 18.8916, "internal_count": 76, "left_child": {"leaf_index": 0, "leaf_value": -0.10057998440452201, "leaf_weight": 7.249758869409564, "leaf_count": 29}, "right_child": {"split_index": 1, "split_feature": 6, "split_gain": 2.736609935760498, "threshold": 0.42991050248998114, "decision_type": "<=", "default_left": true, "missing_type": "None", "internal_value": 0.0698526, "internal_weight": 11.6419, "internal_count": 47, "left_child": {"leaf_index": 1, "leaf_value": 0.04172913981500628, "leaf_weight": 4.962677001953123, "leaf_count": 20}, "right_child": {"leaf_index": 2, "leaf_value": 0.0907485208693696, "leaf_weight": 6.679200649261475, "leaf_count": 27}}}}, {"tree_index": 2, "num_leaves": 3, "num_cat": 0, "shrinkage": 0.05, "tree_structure": {"split_index": 0, "split_feature": 1, "split_gain": 47.3489990234375, "threshold": 0.21707932651042938, "decision_type": "<=", "default_left": true, "missing_type": "None", "internal_value": 0.0042589, "internal_weight": 18.7827, "internal_count": 76, "left_child": {"leaf_index": 0, "leaf_value": -0.08572315969842562, "leaf_weight": 8.220889225602152, "leaf_count": 33}, "right_child": {"split_index": 1, "split_feature": 4, "split_gain": 0.8768560290336609, "threshold": 3.746238682726665, "decision_type": "<=", "default_left": true, "missing_type": "None", "internal_value": 0.0742974, "internal_weight": 10.5618, "internal_count": 43, "left_child": {"leaf_index": 1, "leaf_value": 0.05888713328982956, "leaf_weight": 4.925815150141714, "leaf_count": 20}, "right_child": {"leaf_index": 2, "leaf_value": 0.08776593559637431, "leaf_weight": 5.635978892445564, "leaf_count": 23}}}}, {"tree_index": 3, "num_leaves": 3, "num_cat": 0, "shrinkage": 0.05, "tree_structure": {"split_index": 0, "split_feature": 2, "split_gain": 43.27109909057617, "threshold": 0.1877933777868748, "decision_type": "<=", "default_left": true, "missing_type": "None", "internal_value": 0.00408731, "internal_weight": 18.6324, "internal_count": 76, "left_child": {"leaf_index": 0, "leaf_value": -0.09198249919878682, "leaf_weight": 7.194918513298037, "leaf_count": 29}, "right_child": {"split_index": 1, "split_feature": 5, "split_gain": 2.5679500102996826, "threshold": 5.960978329181672, "decision_type": "<=", "default_left": true, "missing_type": "None", "internal_value": 0.0645213, "internal_weight": 11.4375, "internal_count": 47, "left_child": {"leaf_index": 1, "leaf_value": 0.03716268351078122, "leaf_weight": 4.901437833905218, "leaf_count": 20}, "right_child": {"leaf_index": 2, "leaf_value": 0.08503770409943384, "leaf_weight": 6.536070987582207, "leaf_count": 27}}}}, {"tree_index": 4, "num_leaves": 2, "num_cat": 0, "shrinkage": 0.05, "tree_structure": {"split_index": 0, "split_feature": 0, "split_gain": 37.194698333740234, "threshold": 0.017482842981955904, "decision_type": "<=", "default_left": true, "missing_type": "None", "internal_value": 0.00393158, "internal_weight": 18.4253, "internal_count": 76, "left_child": {"leaf_index": 0, "leaf_value": -0.0644462597644862, "leaf_weight": 9.564357265830042, "leaf_count": 39}, "right_child": {"leaf_index": 1, "leaf_value": 0.07773744841259628, "leaf_weight": 8.86095033586025, "leaf_count": 37}}}, {"tree_index": 5, "num_leaves": 3, "num_cat": 0, "shrinkage": 0.05, "tree_structure": {"split_index": 0, "split_feature": 1, "split_gain": 38.625099182128906, "threshold": 0.20953422039747238, "decision_type": "<=", "default_left": true, "missing_type": "None", "internal_value": 0.00109356, "internal_weight": 17.5622, "internal_count": 73, "left_child": {"leaf_index": 0, "leaf_value": -0.08182934771381979, "leaf_weight": 7.8033407926559475, "leaf_count": 32}, "right_child": {"split_index": 1, "split_feature": 2, "split_gain": 0.6412469744682312, "threshold": 0.2768551632761956, "decision_type": "<=", "default_left": true, "missing_type": "None", "internal_value": 0.0674, "internal_weight": 9.75887, "internal_count": 41, "left_child": {"leaf_index": 1, "leaf_value": 0.05447351483243055, "leaf_weight": 4.83790101110935, "leaf_count": 20}, "right_child": {"leaf_index": 2, "leaf_value": 0.08010824137210974, "leaf_weight": 4.920969009399414, "leaf_count": 21}}}}, {"tree_index": 6, "num_leaves": 3, "num_cat": 0, "shrinkage": 0.05, "tree_structure": {"split_index": 0, "split_feature": 1, "split_gain": 35.38639831542969, "threshold": 0.20953422039747238, "decision_type": "<=", "default_left": true, "missing_type": "None", "internal_value": 0.00105824, "internal_weight": 17.3088, "internal_count": 73, "left_child": {"leaf_index": 0, "leaf_value": -0.07877900188057907, "leaf_weight": 7.702724501490596, "leaf_count": 32}, "right_child": {"split_index": 1, "split_feature": 5, "split_gain": 0.6353020071983337, "threshold": 5.960978329181672, "decision_type": "<=", "default_left": true, "missing_type": "None", "internal_value": 0.0650767, "internal_weight": 9.60604, "internal_count": 41, "left_child": {"leaf_index": 1, "leaf_value": 0.05273890552895878, "leaf_weight": 5.001420021057127, "leaf_count": 21}, "right_child": {"leaf_index": 2, "leaf_value": 0.07847772524062818, "leaf_weight": 4.604622274637222, "leaf_count": 20}}}}, {"tree_index": 7, "num_leaves": 3, "num_cat": 0, "shrinkage": 0.05, "tree_structure": {"split_index": 0, "split_feature": 1, "split_gain": 32.487998962402344, "threshold": 0.20953422039747238, "decision_type": "<=", "default_left": true, "missing_type": "None", "internal_value": 0.00102503, "internal_weight": 17.0267, "internal_count": 73, "left_child": {"leaf_index": 0, "leaf_value": -0.07603950317388325, "leaf_weight": 7.5842023640871075, "leaf_count": 32}, "right_child": {"split_index": 1, "split_feature": 2, "split_gain": 0.6348580121994019, "threshold": 0.2768551632761956, "decision_type": "<=", "default_left": true, "missing_type": "None", "internal_value": 0.0629233, "internal_weight": 9.44247, "internal_count": 41, "left_child": {"leaf_index": 1, "leaf_value": 0.049980035611821474, "leaf_weight": 4.729071155190466, "leaf_count": 20}, "right_child": {"leaf_index": 2, "leaf_value": 0.07590964141722892, "leaf_weight": 4.71340224146843, "leaf_count": 21}}}}, {"tree_index": 8, "num_leaves": 3, "num_cat": 0, "shrinkage": 0.05, "tree_structure": {"split_index": 0, "split_feature": 0, "split_gain": 31.736299514770508, "threshold": 0.009206153029099001, "decision_type": "<=", "default_left": true, "missing_type": "None", "internal_value": 0.000994243, "internal_weight": 16.7193, "internal_count": 73, "left_child": {"leaf_index": 0, "leaf_value": -0.07355297371075753, "leaf_weight": 7.7009300291538265, "leaf_count": 33}, "right_child": {"split_index": 1, "split_feature": 8, "split_gain": 0.41297000646591187, "threshold": 0.4166666666666667, "decision_type": "<=", "default_left": true, "missing_type": "None", "internal_value": 0.0646516, "internal_weight": 9.01833, "internal_count": 40, "left_child": {"leaf_index": 1, "leaf_value": 0.05409700727891742, "leaf_weight": 4.570687755942343, "leaf_count": 20}, "right_child": {"leaf_index": 2, "leaf_value": 0.07549812110914955, "leaf_weight": 4.447644338011742, "leaf_count": 20}}}}, {"tree_index": 9, "num_leaves": 3, "num_cat": 0, "shrinkage": 0.05, "tree_structure": {"split_index": 0, "split_feature": 0, "split_gain": 29.151599884033203, "threshold": 0.009206153029099001, "decision_type": "<=", "default_left": true, "missing_type": "None", "internal_value": 0.000965215, "internal_weight": 16.438, "internal_count": 73, "left_child": {"leaf_index": 0, "leaf_value": -0.07096577518150593, "leaf_weight": 7.58551932871342, "leaf_count": 33}, "right_child": {"split_index": 1, "split_feature": 8, "split_gain": 0.4149399995803833, "threshold": 0.4166666666666667, "decision_type": "<=", "default_left": true, "missing_type": "None", "internal_value": 0.0626017, "internal_weight": 8.85246, "internal_count": 40, "left_child": {"leaf_index": 1, "leaf_value": 0.05200014119655181, "leaf_weight": 4.518581435084341, "leaf_count": 20}, "right_child": {"leaf_index": 2, "leaf_value": 0.07365499553107027, "leaf_weight": 4.333875328302383, "leaf_count": 20}}}}, {"tree_index": 10, "num_leaves": 3, "num_cat": 0, "shrinkage": 0.05, "tree_structure": {"split_index": 0, "split_feature": 2, "split_gain": 29.300399780273438, "threshold": 0.2061262130737305, "decision_type": "<=", "default_left": true, "missing_type": "None", "internal_value": -0.00416186, "internal_weight": 17.933, "internal_count": 81, "left_child": {"leaf_index": 0, "leaf_value": -0.06929779840674052, "leaf_weight": 8.796401813626291, "leaf_count": 39}, "right_child": {"split_index": 1, "split_feature": 0, "split_gain": 0.6718350052833557, "threshold": 0.054254431026992705, "decision_type": "<=", "default_left": true, "missing_type": "None", "internal_value": 0.0585486, "internal_weight": 9.13663, "internal_count": 42, "left_child": {"leaf_index": 1, "leaf_value": 0.044789820435076046, "leaf_weight": 4.50129860639572, "leaf_count": 20}, "right_child": {"leaf_index": 2, "leaf_value": 0.07190953536874066, "leaf_weight": 4.635326474905014, "leaf_count": 22}}}}, {"tree_index": 11, "num_leaves": 3, "num_cat": 0, "shrinkage": 0.05, "tree_structure": {"split_index": 0, "split_feature": 1, "split_gain": 27.12579917907715, "threshold": 0.21707932651042938, "decision_type": "<=", "default_left": true, "missing_type": "None", "internal_value": -0.00403511, "internal_weight": 17.5683, "internal_count": 81, "left_child": {"leaf_index": 0, "leaf_value": -0.06734303520104624, "leaf_weight": 8.619085133075716, "leaf_count": 39}, "right_child": {"split_index": 1, "split_feature": 1, "split_gain": 0.5900470018386841, "threshold": 0.284205049276352, "decision_type": "<=", "default_left": true, "missing_type": "None", "internal_value": 0.0569377, "internal_weight": 8.94918, "internal_count": 42, "left_child": {"leaf_index": 1, "leaf_value": 0.04414446296084768, "leaf_weight": 4.490477174520491, "leaf_count": 20}, "right_child": {"leaf_index": 2, "leaf_value": 0.06982205056009715, "leaf_weight": 4.458703562617302, "leaf_count": 22}}}}, {"tree_index": 12, "num_leaves": 3, "num_cat": 0, "shrinkage": 0.05, "tree_structure": {"split_index": 0, "split_feature": 2, "split_gain": 25.064599990844727, "threshold": 0.2061262130737305, "decision_type": "<=", "default_left": true, "missing_type": "None", "internal_value": -0.00391685, "internal_weight": 17.1921, "internal_count": 81, "left_child": {"leaf_index": 0, "leaf_value": -0.06540158893648441, "leaf_weight": 8.439068406820299, "leaf_count": 39}, "right_child": {"split_index": 1, "split_feature": 2, "split_gain": 0.6114779710769653, "threshold": 0.26139279827475553, "decision_type": "<=", "default_left": true, "missing_type": "None", "internal_value": 0.0553628, "internal_weight": 8.75299, "internal_count": 42, "left_child": {"leaf_index": 1, "leaf_value": 0.0422797205699924, "leaf_weight": 4.420566424727438, "leaf_count": 20}, "right_child": {"leaf_index": 2, "leaf_value": 0.06871197803456791, "leaf_weight": 4.332424849271774, "leaf_count": 22}}}}, {"tree_index": 13, "num_leaves": 3, "num_cat": 0, "shrinkage": 0.05, "tree_structure": {"split_index": 0, "split_feature": 1, "split_gain": 23.261199951171875, "threshold": 0.21707932651042938, "decision_type": "<=", "default_left": true, "missing_type": "None", "internal_value": -0.00380582, "internal_weight": 16.8087, "internal_count": 81, "left_child": {"leaf_index": 0, "leaf_value": -0.06372517967076796, "leaf_weight": 8.24862663447857, "leaf_count": 39}, "right_child": {"split_index": 1, "split_feature": 5, "split_gain": 0.6276929974555969, "threshold": 5.960978329181672, "decision_type": "<=", "default_left": true, "missing_type": "None", "internal_value": 0.0539334, "internal_weight": 8.56007, "internal_count": 42, "left_child": {"leaf_index": 1, "leaf_value": 0.0411008318946926, "leaf_weight": 4.509339749813078, "leaf_count": 21}, "right_child": {"leaf_index": 2, "leaf_value": 0.06821891378400466, "leaf_weight": 4.050733357667923, "leaf_count": 21}}}}, {"tree_index": 14, "num_leaves": 3, "num_cat": 0, "shrinkage": 0.05, "tree_structure": {"split_index": 0, "split_feature": 2, "split_gain": 21.560400009155273, "threshold": 0.2061262130737305, "decision_type": "<=", "default_left": true, "missing_type": "None", "internal_value": -0.00370104, "internal_weight": 16.4224, "internal_count": 81, "left_child": {"leaf_index": 0, "leaf_value": -0.062076749896150044, "leaf_weight": 8.057071283459665, "leaf_count": 39}, "right_child": {"split_index": 1, "split_feature": 0, "split_gain": 0.7408779859542847, "threshold": 0.054254431026992705, "decision_type": "<=", "default_left": true, "missing_type": "None", "internal_value": 0.0525238, "internal_weight": 8.36529, "internal_count": 42, "left_child": {"leaf_index": 1, "leaf_value": 0.03772801110406679, "leaf_weight": 4.206374973058699, "leaf_count": 20}, "right_child": {"leaf_index": 2, "leaf_value": 0.06748847833201516, "leaf_weight": 4.158914044499397, "leaf_count": 22}}}}], "feature_importances": {"nativeProximity": 6, "max_chunk_sim_scores": 7, "avg_top_3_chunk_sim_scores": 9, "firstPhase": 1, "avg_top_3_chunk_text_scores": 3, "elementSimilarity(chunks)": 1, "fieldMatch(title).longestSequenceRatio": 2}, "pandas_categorical": []}