{"name": "tree", "version": "v4", "num_class": 1, "num_tree_per_iteration": 1, "label_index": 0, "max_feature_idx": 15, "objective": "binary sigmoid:1", "average_output": false, "feature_names": ["nativeProximity", "closeness(chunk_embeddings)", "avg_top_3_chunk_sim_scores", "max_chunk_text_scores", "firstPhase", "nativeFieldMatch", "avg_top_3_chunk_text_scores", "nativeRank", "max_chunk_sim_scores", "elementCompleteness(chunks).completeness", "elementCompleteness(chunks).queryCompleteness", "fieldMatch(title).importance", "closeness(title_embedding)", "bm25(chunks)", "elementCompleteness(chunks).fieldCompleteness", "elementCompleteness(title).queryCompleteness"], "monotone_constraints": [], "feature_infos": {"nativeProximity": {"min_value": 0, "max_value": 0.1963793884211417, "values": []}, "closeness(chunk_embeddings)": {"min_value": 0.0026666666666666, "max_value": 0.0061349693251533, "values": []}, "avg_top_3_chunk_sim_scores": {"min_value": 0.0026666666381061, "max_value": 0.0056179775856435, "values": []}, "max_chunk_text_scores": {"min_value": 0, "max_value": 21.62700843811035, "values": []}, "firstPhase": {"min_value": -3.597412637029299, "max_value": 14.489991358371704, "values": []}, "nativeFieldMatch": {"min_value": 0, "max_value": 0.3354072940571937, "values": []}, "avg_top_3_chunk_text_scores": {"min_value": 0, "max_value": 20.105823516845703, "values": []}, "nativeRank": {"min_value": 0.0017429193899782, "max_value": 0.1726327599066356, "values": []}, "max_chunk_sim_scores": {"min_value": 0.0026666666381061, "max_value": 0.0061349691823124, "values": []}, "elementCompleteness(chunks).completeness": {"min_value": 0, "max_value": 0.4232026143790849, "values": []}, "elementCompleteness(chunks).queryCompleteness": {"min_value": 0, "max_value": 0.7777777777777778, "values": []}, "fieldMatch(title).importance": {"min_value": 0, "max_value": 0.4642385497337482, "values": []}, "closeness(title_embedding)": {"min_value": 0.0026109660574412, "max_value": 0.0057803468208092, "values": []}, "bm25(chunks)": {"min_value": 0, "max_value": 25.04552896302937, "values": []}, "elementCompleteness(chunks).fieldCompleteness": {"min_value": 0, "max_value": 0.0952380952380952, "values": []}, "elementCompleteness(title).queryCompleteness": {"min_value": 0, "max_value": 0.5555555555555556, "values": []}}, "tree_info": [{"tree_index": 0, "num_leaves": 3, "num_cat": 0, "shrinkage": 1, "tree_structure": {"split_index": 0, "split_feature": 1, "split_gain": 48.76959991455078, "threshold": 0.0033278699417483505, "decision_type": "<=", "default_left": true, "missing_type": "None", "internal_value": 0.0451569, "internal_weight": 18.9927, "internal_count": 76, "left_child": {"leaf_index": 0, "leaf_value": -0.06277929090139352, "leaf_weight": 6.747404962778094, "leaf_count": 27}, "right_child": {"split_index": 1, "split_feature": 3, "split_gain": 5.017439842224121, "threshold": 8.799978256225588, "decision_type": "<=", "default_left": true, "missing_type": "None", "internal_value": 0.104632, "internal_weight": 12.2453, "internal_count": 49, "left_child": {"leaf_index": 1, "leaf_value": 0.07327301845644973, "leaf_weight": 6.24759718775749, "leaf_count": 25}, "right_child": {"leaf_index": 2, "leaf_value": 0.13729763462484657, "leaf_weight": 5.997693300247192, "leaf_count": 24}}}}, {"tree_index": 1, "num_leaves": 3, "num_cat": 0, "shrinkage": 0.05, "tree_structure": {"split_index": 0, "split_feature": 6, "split_gain": 45.39120101928711, "threshold": 2.8792902231216435, "decision_type": "<=", "default_left": true, "missing_type": "None", "internal_value": 0.00565332, "internal_weight": 18.9568, "internal_count": 76, "left_child": {"leaf_index": 0, "leaf_value": -0.09847793246716693, "leaf_weight": 6.742818921804431, "leaf_count": 27}, "right_child": {"split_index": 1, "split_feature": 11, "split_gain": 4.1999101638793945, "threshold": 0.06698612732153912, "decision_type": "<=", "default_left": true, "missing_type": "None", "internal_value": 0.0631398, "internal_weight": 12.214, "internal_count": 49, "left_child": {"leaf_index": 1, "leaf_value": 0.035586289077617704, "leaf_weight": 6.485943242907522, "leaf_count": 26}, "right_child": {"leaf_index": 2, "leaf_value": 0.09433919002535132, "leaf_weight": 5.728022277355194, "leaf_count": 23}}}}, {"tree_index": 2, "num_leaves": 3, "num_cat": 0, "shrinkage": 0.05, "tree_structure": {"split_index": 0, "split_feature": 1, "split_gain": 41.12799835205078, "threshold": 0.0033278699417483505, "decision_type": "<=", "default_left": true, "missing_type": "None", "internal_value": 0.00539634, "internal_weight": 18.8759, "internal_count": 76, "left_child": {"leaf_index": 0, "leaf_value": -0.09391699366784194, "leaf_weight": 6.715740099549296, "leaf_count": 27}, "right_child": {"split_index": 1, "split_feature": 3, "split_gain": 4.200860023498535, "threshold": 8.799978256225588, "decision_type": "<=", "default_left": true, "missing_type": "None", "internal_value": 0.0602445, "internal_weight": 12.1602, "internal_count": 49, "left_child": {"leaf_index": 1, "leaf_value": 0.03157095465836544, "leaf_weight": 6.229666292667387, "leaf_count": 25}, "right_child": {"leaf_index": 2, "leaf_value": 0.0903646631370639, "leaf_weight": 5.930485278367996, "leaf_count": 24}}}}, {"tree_index": 3, "num_leaves": 3, "num_cat": 0, "shrinkage": 0.05, "tree_structure": {"split_index": 0, "split_feature": 6, "split_gain": 38.54100036621094, "threshold": 2.8792902231216435, "decision_type": "<=", "default_left": true, "missing_type": "None", "internal_value": 0.0051653, "internal_weight": 18.7409, "internal_count": 76, "left_child": {"leaf_index": 0, "leaf_value": -0.09134508173914492, "leaf_weight": 6.665441706776622, "leaf_count": 27}, "right_child": {"split_index": 1, "split_feature": 11, "split_gain": 3.5562500953674316, "threshold": 0.06698612732153912, "decision_type": "<=", "default_left": true, "missing_type": "None", "internal_value": 0.0584371, "internal_weight": 12.0755, "internal_count": 49, "left_child": {"leaf_index": 1, "leaf_value": 0.03309067117659261, "leaf_weight": 6.448570743203161, "leaf_count": 26}, "right_child": {"leaf_index": 2, "leaf_value": 0.08748468593628905, "leaf_weight": 5.626931011676788, "leaf_count": 23}}}}, {"tree_index": 4, "num_leaves": 3, "num_cat": 0, "shrinkage": 0.05, "tree_structure": {"split_index": 0, "split_feature": 6, "split_gain": 35.138999938964844, "threshold": 2.8792902231216435, "decision_type": "<=", "default_left": true, "missing_type": "None", "internal_value": 0.00495243, "internal_weight": 18.574, "internal_count": 76, "left_child": {"leaf_index": 0, "leaf_value": -0.08775766310802748, "leaf_weight": 6.592797294259074, "leaf_count": 27}, "right_child": {"split_index": 1, "split_feature": 7, "split_gain": 3.417059898376465, "threshold": 0.05257662670605016, "decision_type": "<=", "default_left": true, "missing_type": "None", "internal_value": 0.0559673, "internal_weight": 11.9812, "internal_count": 49, "left_child": {"leaf_index": 1, "leaf_value": 0.03114684581768883, "leaf_weight": 6.427598685026167, "leaf_count": 26}, "right_child": {"leaf_index": 2, "leaf_value": 0.08469383963640638, "leaf_weight": 5.553598165512085, "leaf_count": 23}}}}, {"tree_index": 5, "num_leaves": 2, "num_cat": 0, "shrinkage": 0.05, "tree_structure": {"split_index": 0, "split_feature": 2, "split_gain": 34.06129837036133, "threshold": 0.0034662149846553005, "decision_type": "<=", "default_left": true, "missing_type": "None", "internal_value": 0.00190006, "internal_weight": 17.6582, "internal_count": 73, "left_child": {"leaf_index": 0, "leaf_value": -0.06837363046138226, "leaf_weight": 8.724081933498384, "leaf_count": 36}, "right_child": {"leaf_index": 1, "leaf_value": 0.07052199852113782, "leaf_weight": 8.934073597192763, "leaf_count": 37}}}, {"tree_index": 6, "num_leaves": 3, "num_cat": 0, "shrinkage": 0.05, "tree_structure": {"split_index": 0, "split_feature": 0, "split_gain": 34.236900329589844, "threshold": 0.007906656146749552, "decision_type": "<=", "default_left": true, "missing_type": "None", "internal_value": 0.0018274, "internal_weight": 17.4739, "internal_count": 73, "left_child": {"leaf_index": 0, "leaf_value": -0.07962496733444326, "leaf_weight": 7.42165766656399, "leaf_count": 31}, "right_child": {"split_index": 1, "split_feature": 1, "split_gain": 1.4350500106811523, "threshold": 0.003992159112641001, "decision_type": "<=", "default_left": true, "missing_type": "None", "internal_value": 0.0619642, "internal_weight": 10.0523, "internal_count": 42, "left_child": {"leaf_index": 1, "leaf_value": 0.04256466861196531, "leaf_weight": 4.892856478691099, "leaf_count": 20}, "right_child": {"leaf_index": 2, "leaf_value": 0.08036140011910137, "leaf_weight": 5.159420222043991, "leaf_count": 22}}}}, {"tree_index": 7, "num_leaves": 3, "num_cat": 0, "shrinkage": 0.05, "tree_structure": {"split_index": 0, "split_feature": 0, "split_gain": 31.359600067138672, "threshold": 0.007906656146749552, "decision_type": "<=", "default_left": true, "missing_type": "None", "internal_value": 0.00176116, "internal_weight": 17.2354, "internal_count": 73, "left_child": {"leaf_index": 0, "leaf_value": -0.07682005731604907, "leaf_weight": 7.3107973039150265, "leaf_count": 31}, "right_child": {"split_index": 1, "split_feature": 1, "split_gain": 1.3894599676132202, "threshold": 0.003992159112641001, "decision_type": "<=", "default_left": true, "missing_type": "None", "internal_value": 0.0596468, "internal_weight": 9.9246, "internal_count": 42, "left_child": {"leaf_index": 1, "leaf_value": 0.04060073229994923, "leaf_weight": 4.873544856905935, "leaf_count": 20}, "right_child": {"leaf_index": 2, "leaf_value": 0.07802351710806478, "leaf_weight": 5.0510503351688385, "leaf_count": 22}}}}, {"tree_index": 8, "num_leaves": 3, "num_cat": 0, "shrinkage": 0.05, "tree_structure": {"split_index": 0, "split_feature": 1, "split_gain": 27.77359962463379, "threshold": 0.0033726908726908005, "decision_type": "<=", "default_left": true, "missing_type": "None", "internal_value": 0.00169987, "internal_weight": 16.9709, "internal_count": 73, "left_child": {"leaf_index": 0, "leaf_value": -0.07514041975809384, "leaf_weight": 6.946322709321978, "leaf_count": 30}, "right_child": {"split_index": 1, "split_feature": 9, "split_gain": 2.6386001110076904, "threshold": 0.26230014581361444, "decision_type": "<=", "default_left": true, "missing_type": "None", "internal_value": 0.0549448, "internal_weight": 10.0246, "internal_count": 43, "left_child": {"leaf_index": 1, "leaf_value": 0.02798407814325123, "leaf_weight": 4.763102352619169, "leaf_count": 20}, "right_child": {"leaf_index": 2, "leaf_value": 0.07935195325780839, "leaf_weight": 5.2614559680223465, "leaf_count": 23}}}}, {"tree_index": 9, "num_leaves": 3, "num_cat": 0, "shrinkage": 0.05, "tree_structure": {"split_index": 0, "split_feature": 0, "split_gain": 27.16659927368164, "threshold": 0.007906656146749552, "decision_type": "<=", "default_left": true, "missing_type": "None", "internal_value": 0.00164094, "internal_weight": 16.7055, "internal_count": 73, "left_child": {"leaf_index": 0, "leaf_value": -0.07287066919232192, "leaf_weight": 7.061754450201991, "leaf_count": 31}, "right_child": {"split_index": 1, "split_feature": 1, "split_gain": 1.2561700344085693, "threshold": 0.003992159112641001, "decision_type": "<=", "default_left": true, "missing_type": "None", "internal_value": 0.0562032, "internal_weight": 9.64371, "internal_count": 42, "left_child": {"leaf_index": 1, "leaf_value": 0.038150382814921766, "leaf_weight": 4.819948494434355, "leaf_count": 20}, "right_child": {"leaf_index": 2, "leaf_value": 0.0742416894545954, "leaf_weight": 4.823765784502029, "leaf_count": 22}}}}, {"tree_index": 10, "num_leaves": 3, "num_cat": 0, "shrinkage": 0.05, "tree_structure": {"split_index": 0, "split_feature": 1, "split_gain": 22.280000686645508, "threshold": 0.0033726908726908005, "decision_type": "<=", "default_left": true, "missing_type": "None", "internal_value": -0.00382933, "internal_weight": 18.4311, "internal_count": 81, "left_child": {"leaf_index": 0, "leaf_value": -0.07259058700273228, "leaf_weight": 7.186931386590007, "leaf_count": 32}, "right_child": {"split_index": 1, "split_feature": 10, "split_gain": 4.871679782867432, "threshold": 0.4494949494949495, "decision_type": "<=", "default_left": true, "missing_type": "None", "internal_value": 0.040121, "internal_weight": 11.2441, "internal_count": 49, "left_child": {"leaf_index": 1, "leaf_value": 0.0020699749543521247, "leaf_weight": 4.811936154961584, "leaf_count": 20}, "right_child": {"leaf_index": 2, "leaf_value": 0.0685870143822294, "leaf_weight": 6.432186394929886, "leaf_count": 29}}}}, {"tree_index": 11, "num_leaves": 3, "num_cat": 0, "shrinkage": 0.05, "tree_structure": {"split_index": 0, "split_feature": 0, "split_gain": 20.64620018005371, "threshold": 0.0117426732427177, "decision_type": "<=", "default_left": true, "missing_type": "None", "internal_value": -0.00369875, "internal_weight": 18.1342, "internal_count": 81, "left_child": {"leaf_index": 0, "leaf_value": -0.062020691499336617, "leaf_weight": 8.261444851756098, "leaf_count": 37}, "right_child": {"split_index": 1, "split_feature": 1, "split_gain": 1.743839979171753, "threshold": 0.0038912862442273505, "decision_type": "<=", "default_left": true, "missing_type": "None", "internal_value": 0.0451045, "internal_weight": 9.87277, "internal_count": 44, "left_child": {"leaf_index": 1, "leaf_value": 0.023080090195588748, "leaf_weight": 4.70466874539852, "leaf_count": 20}, "right_child": {"leaf_index": 2, "leaf_value": 0.06515398868291984, "leaf_weight": 5.168100073933601, "leaf_count": 24}}}}, {"tree_index": 12, "num_leaves": 3, "num_cat": 0, "shrinkage": 0.05, "tree_structure": {"split_index": 0, "split_feature": 1, "split_gain": 19.548099517822266, "threshold": 0.0033726908726908005, "decision_type": "<=", "default_left": true, "missing_type": "None", "internal_value": -0.00357086, "internal_weight": 17.8491, "internal_count": 81, "left_child": {"leaf_index": 0, "leaf_value": -0.06945728670950889, "leaf_weight": 6.903550997376445, "leaf_count": 32}, "right_child": {"split_index": 1, "split_feature": 10, "split_gain": 4.225830078125, "threshold": 0.4494949494949495, "decision_type": "<=", "default_left": true, "missing_type": "None", "internal_value": 0.037985, "internal_weight": 10.9455, "internal_count": 49, "left_child": {"leaf_index": 1, "leaf_value": 0.0027005139926465725, "leaf_weight": 4.7799405306577665, "leaf_count": 20}, "right_child": {"leaf_index": 2, "leaf_value": 0.06533969862517426, "leaf_weight": 6.165578231215477, "leaf_count": 29}}}}, {"tree_index": 13, "num_leaves": 3, "num_cat": 0, "shrinkage": 0.05, "tree_structure": {"split_index": 0, "split_feature": 3, "split_gain": 18.294700622558594, "threshold": 2.8784720897674565, "decision_type": "<=", "default_left": true, "missing_type": "None", "internal_value": -0.00345492, "internal_weight": 17.5346, "internal_count": 81, "left_child": {"leaf_index": 0, "leaf_value": -0.07529743259958199, "leaf_weight": 5.886533468961718, "leaf_count": 28}, "right_child": {"split_index": 1, "split_feature": 2, "split_gain": 7.465179920196533, "threshold": 0.0035507860593497003, "decision_type": "<=", "default_left": true, "missing_type": "None", "internal_value": 0.032852, "internal_weight": 11.648, "internal_count": 53, "left_child": {"leaf_index": 1, "leaf_value": -0.014341230377475356, "leaf_weight": 4.873544991016386, "leaf_count": 21}, "right_child": {"leaf_index": 2, "leaf_value": 0.0668026835982, "leaf_weight": 6.774473547935486, "leaf_count": 32}}}}, {"tree_index": 14, "num_leaves": 3, "num_cat": 0, "shrinkage": 0.05, "tree_structure": {"split_index": 0, "split_feature": 8, "split_gain": 17.055200576782227, "threshold": 0.0033726908732205005, "decision_type": "<=", "default_left": true, "missing_type": "None", "internal_value": -0.0033462, "internal_weight": 17.2057, "internal_count": 81, "left_child": {"leaf_index": 0, "leaf_value": -0.06650978081621454, "leaf_weight": 6.592371836304667, "leaf_count": 32}, "right_child": {"split_index": 1, "split_feature": 10, "split_gain": 3.731300115585327, "threshold": 0.4494949494949495, "decision_type": "<=", "default_left": true, "missing_type": "None", "internal_value": 0.0358872, "internal_weight": 10.6134, "internal_count": 49, "left_child": {"leaf_index": 1, "leaf_value": 0.0028238404181298218, "leaf_weight": 4.730101644992827, "leaf_count": 20}, "right_child": {"leaf_index": 2, "leaf_value": 0.062469975827325434, "leaf_weight": 5.883248493075371, "leaf_count": 29}}}}, {"tree_index": 15, "num_leaves": 3, "num_cat": 0, "shrinkage": 0.05, "tree_structure": {"split_index": 0, "split_feature": 3, "split_gain": 18.949800491333008, "threshold": 2.8784720897674565, "decision_type": "<=", "default_left": true, "missing_type": "None", "internal_value": -0.00633737, "internal_weight": 16.9266, "internal_count": 83, "left_child": {"leaf_index": 0, "leaf_value": -0.0731084376866042, "leaf_weight": 6.527943879365924, "leaf_count": 33}, "right_child": {"split_index": 1, "split_feature": 11, "split_gain": 3.6687800884246826, "threshold": 0.06698612732153912, "decision_type": "<=", "default_left": true, "missing_type": "None", "internal_value": 0.0355794, "internal_weight": 10.3987, "internal_count": 50, "left_child": {"leaf_index": 1, "leaf_value": 0.009305289241596171, "leaf_weight": 5.833238944411276, "leaf_count": 26}, "right_child": {"leaf_index": 2, "leaf_value": 0.06914980403315123, "leaf_weight": 4.565416008234024, "leaf_count": 24}}}}, {"tree_index": 16, "num_leaves": 3, "num_cat": 0, "shrinkage": 0.05, "tree_structure": {"split_index": 0, "split_feature": 3, "split_gain": 17.582500457763672, "threshold": 2.8784720897674565, "decision_type": "<=", "default_left": true, "missing_type": "None", "internal_value": -0.00615333, "internal_weight": 16.5771, "internal_count": 83, "left_child": {"leaf_index": 0, "leaf_value": -0.07164122047299352, "leaf_weight": 6.333487957715991, "leaf_count": 33}, "right_child": {"split_index": 1, "split_feature": 12, "split_gain": 3.4681200981140137, "threshold": 0.0031695800683142, "decision_type": "<=", "default_left": true, "missing_type": "None", "internal_value": 0.034337, "internal_weight": 10.2436, "internal_count": 50, "left_child": {"leaf_index": 1, "leaf_value": 0.0027421979965577205, "leaf_weight": 4.700262874364851, "leaf_count": 21}, "right_child": {"leaf_index": 2, "leaf_value": 0.06112657445544248, "leaf_weight": 5.543341517448425, "leaf_count": 29}}}}, {"tree_index": 17, "num_leaves": 3, "num_cat": 0, "shrinkage": 0.05, "tree_structure": {"split_index": 0, "split_feature": 0, "split_gain": 14.996399879455566, "threshold": 0.004445085749210401, "decision_type": "<=", "default_left": true, "missing_type": "None", "internal_value": -0.00597912, "internal_weight": 16.2267, "internal_count": 83, "left_child": {"leaf_index": 0, "leaf_value": -0.06925364761368245, "leaf_weight": 5.93763864040375, "leaf_count": 32}, "right_child": {"split_index": 1, "split_feature": 4, "split_gain": 3.399930000305176, "threshold": 3.746423918679089, "decision_type": "<=", "default_left": true, "missing_type": "None", "internal_value": 0.0305355, "internal_weight": 10.2891, "internal_count": 51, "left_child": {"leaf_index": 1, "leaf_value": 0.007094259927116327, "leaf_weight": 6.17902499437332, "leaf_count": 28}, "right_child": {"leaf_index": 2, "leaf_value": 0.06577693316294562, "leaf_weight": 4.110044226050377, "leaf_count": 23}}}}, {"tree_index": 18, "num_leaves": 3, "num_cat": 0, "shrinkage": 0.05, "tree_structure": {"split_index": 0, "split_feature": 3, "split_gain": 15.636899948120117, "threshold": 2.8784720897674565, "decision_type": "<=", "default_left": true, "missing_type": "None", "internal_value": -0.00580868, "internal_weight": 15.8848, "internal_count": 83, "left_child": {"leaf_index": 0, "leaf_value": -0.06972247832691109, "leaf_weight": 5.971959799528123, "leaf_count": 33}, "right_child": {"split_index": 1, "split_feature": 12, "split_gain": 3.882040023803711, "threshold": 0.0031201323987538505, "decision_type": "<=", "default_left": true, "missing_type": "None", "internal_value": 0.0326959, "internal_weight": 9.91285, "internal_count": 50, "left_child": {"leaf_index": 1, "leaf_value": -0.0034014844192960937, "leaf_weight": 4.252766638994215, "leaf_count": 19}, "right_child": {"leaf_index": 2, "leaf_value": 0.05981813476463613, "leaf_weight": 5.660085663199425, "leaf_count": 31}}}}, {"tree_index": 19, "num_leaves": 3, "num_cat": 0, "shrinkage": 0.05, "tree_structure": {"split_index": 0, "split_feature": 3, "split_gain": 14.550800323486328, "threshold": 2.8784720897674565, "decision_type": "<=", "default_left": true, "missing_type": "None", "internal_value": -0.00565156, "internal_weight": 15.5273, "internal_count": 83, "left_child": {"leaf_index": 0, "leaf_value": -0.06853992565967283, "leaf_weight": 5.776213079690934, "leaf_count": 33}, "right_child": {"split_index": 1, "split_feature": 12, "split_gain": 4.035369873046875, "threshold": 0.0030960049075991008, "decision_type": "<=", "default_left": true, "missing_type": "None", "internal_value": 0.0316013, "internal_weight": 9.7511, "internal_count": 50, "left_child": {"leaf_index": 1, "leaf_value": -0.006418900608649649, "leaf_weight": 4.067697420716284, "leaf_count": 18}, "right_child": {"leaf_index": 2, "leaf_value": 0.058812959879737836, "leaf_weight": 5.68340390920639, "leaf_count": 32}}}}, {"tree_index": 20, "num_leaves": 3, "num_cat": 0, "shrinkage": 0.05, "tree_structure": {"split_index": 0, "split_feature": 0, "split_gain": 14.563699722290039, "threshold": 0.0032515638079955007, "decision_type": "<=", "default_left": true, "missing_type": "None", "internal_value": 0.00261778, "internal_weight": 14.4452, "internal_count": 78, "left_child": {"leaf_index": 0, "leaf_value": -0.06732028921268732, "leaf_weight": 4.912303686141969, "leaf_count": 29}, "right_child": {"split_index": 1, "split_feature": 9, "split_gain": 1.172569990158081, "threshold": 0.2560238996996213, "decision_type": "<=", "default_left": true, "missing_type": "None", "internal_value": 0.0386568, "internal_weight": 9.53292, "internal_count": 49, "left_child": {"leaf_index": 1, "leaf_value": 0.02143128731087674, "leaf_weight": 4.85155241191387, "leaf_count": 22}, "right_child": {"leaf_index": 2, "leaf_value": 0.05650848645313936, "leaf_weight": 4.6813705414533615, "leaf_count": 27}}}}], "feature_importances": {"nativeProximity": 6, "closeness(chunk_embeddings)": 9, "avg_top_3_chunk_sim_scores": 2, "max_chunk_text_scores": 7, "firstPhase": 1, "avg_top_3_chunk_text_scores": 3, "nativeRank": 1, "max_chunk_sim_scores": 1, "elementCompleteness(chunks).completeness": 2, "elementCompleteness(chunks).queryCompleteness": 3, "fieldMatch(title).importance": 3, "closeness(title_embedding)": 3}, "pandas_categorical": []}