{"name": "tree", "version": "v3", "num_class": 1, "num_tree_per_iteration": 1, "label_index": 0, "max_feature_idx": 4, "objective": "lambdarank", "average_output": false, "feature_names": ["bi_encoder", "bm25(title)", "bm25(description)", "bm25(bullets)", "nativeRank(title)"], "monotone_constraints": [], "feature_infos": {"bi_encoder": {"min_value": 0.36474733598614345, "max_value": 1, "values": []}, "bm25(title)": {"min_value": 0, "max_value": 82.74397844762167, "values": []}, "bm25(description)": {"min_value": 0, "max_value": 73.91552981927114, "values": []}, "bm25(bullets)": {"min_value": 0, "max_value": 82.76566769110991, "values": []}, "nativeRank(title)": {"min_value": 0, "max_value": 0.44405739018608337, "values": []}}, "tree_info": [{"tree_index": 0, "num_leaves": 31, "num_cat": 0, "shrinkage": 0.05, "tree_structure": {"split_index": 0, "split_feature": 4, "split_gain": 1511.1400146484375, "threshold": 0.14862576757457363, "decision_type": "<=", "default_left": true, "missing_type": "None", "internal_value": 0, "internal_weight": 0, "internal_count": 335674, "left_child": {"split_index": 2, "split_feature": 1, "split_gain": 423.5820007324219, "threshold": 6.084689616377897, "decision_type": "<=", "default_left": true, "missing_type": "None", "internal_value": -0.00855207, "internal_weight": 12145.8, "internal_count": 265020, "left_child": {"split_index": 6, "split_feature": 1, "split_gain": 60.895198822021484, "threshold": 2.4360061572482565, "decision_type": "<=", "default_left": true, "missing_type": "None", "internal_value": -0.0196945, "internal_weight": 5010.65, "internal_count": 111486, "left_child": {"leaf_index": 0, "leaf_value": -0.0246162930777906, "leaf_weight": 2787.887427582027, "leaf_count": 62834}, "right_child": {"split_index": 18, "split_feature": 4, "split_gain": 9.234149932861328, "threshold": 0.037257779114974555, "decision_type": "<=", "default_left": true, "missing_type": "None", "internal_value": -0.0135214, "internal_weight": 2222.77, "internal_count": 48652, "left_child": {"split_index": 21, "split_feature": 4, "split_gain": 7.860690116882324, "threshold": 0.015684494758669166, "decision_type": "<=", "default_left": true, "missing_type": "None", "internal_value": -0.0184192, "internal_weight": 671.589, "internal_count": 15275, "left_child": {"leaf_index": 7, "leaf_value": 0.009795070245453813, "leaf_weight": 23.811483890516683, "leaf_count": 493}, "right_child": {"leaf_index": 22, "leaf_value": -0.019456290650863642, "leaf_weight": 647.7771449468273, "leaf_count": 14782}}, "right_child": {"split_index": 24, "split_feature": 4, "split_gain": 5.635129928588867, "threshold": 0.1043008579219966, "decision_type": "<=", "default_left": true, "missing_type": "None", "internal_value": -0.0114009, "internal_weight": 1551.18, "internal_count": 33377, "left_child": {"leaf_index": 19, "leaf_value": -0.01219804573823893, "leaf_weight": 1449.7319867276528, "leaf_count": 31227}, "right_child": {"leaf_index": 25, "leaf_value": -8.34693300138177e-06, "leaf_weight": 101.44532471394632, "leaf_count": 2150}}}}, "right_child": {"split_index": 3, "split_feature": 0, "split_gain": 985.0859985351562, "threshold": 0.49572934090848914, "decision_type": "<=", "default_left": true, "missing_type": "None", "internal_value": -0.00072731, "internal_weight": 7135.15, "internal_count": 153534, "left_child": {"split_index": 13, "split_feature": 1, "split_gain": 12.538000106811523, "threshold": 10.178566041126137, "decision_type": "<=", "default_left": true, "missing_type": "None", "internal_value": -0.0194071, "internal_weight": 3548.13, "internal_count": 76223, "left_child": {"split_index": 14, "split_feature": 4, "split_gain": 12.576700210571289, "threshold": 0.06847602408283048, "decision_type": "<=", "default_left": true, "missing_type": "None", "internal_value": -0.0225401, "internal_weight": 1680.69, "internal_count": 36492, "left_child": {"split_index": 25, "split_feature": 1, "split_gain": 5.381490230560303, "threshold": 7.176201108067126, "decision_type": "<=", "default_left": true, "missing_type": "None", "internal_value": -0.0180599, "internal_weight": 810.768, "internal_count": 18070, "left_child": {"split_index": 26, "split_feature": 0, "split_gain": 22.871999740600586, "threshold": 0.4593780966484073, "decision_type": "<=", "default_left": true, "missing_type": "None", "internal_value": -0.0232952, "internal_weight": 305.755, "internal_count": 6961, "left_child": {"leaf_index": 3, "leaf_value": -0.03902002532060511, "leaf_weight": 131.66511984955287, "leaf_count": 3238}, "right_child": {"leaf_index": 27, "leaf_value": -0.011402368750517155, "leaf_weight": 174.09025649848627, "leaf_count": 3723}}, "right_child": {"leaf_index": 26, "leaf_value": -0.014890277171995085, "leaf_weight": 505.01290998843615, "leaf_count": 11109}}, "right_child": {"leaf_index": 15, "leaf_value": -0.02671574360814365, "leaf_weight": 869.9175550574146, "leaf_count": 18422}}, "right_child": {"leaf_index": 14, "leaf_value": -0.016587414797521054, "leaf_weight": 1867.4473151326529, "leaf_count": 39731}}, "right_child": {"split_index": 9, "split_feature": 1, "split_gain": 32.99729919433594, "threshold": 11.580321110470319, "decision_type": "<=", "default_left": true, "missing_type": "None", "internal_value": 0.01775, "internal_weight": 3587.01, "internal_count": 77311, "left_child": {"leaf_index": 4, "leaf_value": 0.013091136644760547, "leaf_weight": 1845.3658454407414, "leaf_count": 41066}, "right_child": {"leaf_index": 10, "leaf_value": 0.02268634379845049, "leaf_weight": 1741.6475103115154, "leaf_count": 36245}}}}, "right_child": {"split_index": 1, "split_feature": 0, "split_gain": 871.5040283203125, "threshold": 0.5171849471778854, "decision_type": "<=", "default_left": true, "missing_type": "None", "internal_value": 0.0278183, "internal_weight": 3733.94, "internal_count": 70654, "left_child": {"split_index": 4, "split_feature": 0, "split_gain": 164.98599243164062, "threshold": 0.4719681734870665, "decision_type": "<=", "default_left": true, "missing_type": "None", "internal_value": 0.000164646, "internal_weight": 1616.02, "internal_count": 30385, "left_child": {"split_index": 17, "split_feature": 4, "split_gain": 9.888710021972656, "threshold": 0.31717553853514585, "decision_type": "<=", "default_left": true, "missing_type": "None", "internal_value": -0.0263955, "internal_weight": 429.349, "internal_count": 8727, "left_child": {"leaf_index": 1, "leaf_value": -0.027525841051309327, "leaf_weight": 420.02818158554146, "leaf_count": 8567}, "right_child": {"leaf_index": 18, "leaf_value": 0.024543081793246043, "leaf_weight": 9.320827794261275, "leaf_count": 160}}, "right_child": {"split_index": 8, "split_feature": 4, "split_gain": 41.81010055541992, "threshold": 0.23127974511508456, "decision_type": "<=", "default_left": true, "missing_type": "None", "internal_value": 0.00977436, "internal_weight": 1186.67, "internal_count": 21658, "left_child": {"split_index": 10, "split_feature": 1, "split_gain": 20.118600845336914, "threshold": 16.178223126054053, "decision_type": "<=", "default_left": true, "missing_type": "None", "internal_value": 0.00601421, "internal_weight": 1022.54, "internal_count": 18987, "left_child": {"leaf_index": 5, "leaf_value": -0.00037663662270388766, "leaf_weight": 558.6575044231431, "leaf_count": 10457}, "right_child": {"split_index": 16, "split_feature": 0, "split_gain": 9.903619766235352, "threshold": 0.5008310778587882, "decision_type": "<=", "default_left": true, "missing_type": "None", "internal_value": 0.0137108, "internal_weight": 463.879, "internal_count": 8530, "left_child": {"leaf_index": 11, "leaf_value": 0.0072277762010287405, "leaf_weight": 259.51826216239715, "leaf_count": 4776}, "right_child": {"leaf_index": 17, "leaf_value": 0.021943670760289857, "leaf_weight": 204.36056819037185, "leaf_count": 3754}}}, "right_child": {"split_index": 15, "split_feature": 1, "split_gain": 11.796299934387207, "threshold": 12.181642094866385, "decision_type": "<=", "default_left": true, "missing_type": "None", "internal_value": 0.0331997, "internal_weight": 164.134, "internal_count": 2671, "left_child": {"split_index": 23, "split_feature": 4, "split_gain": 6.52908992767334, "threshold": 0.2629983904674352, "decision_type": "<=", "default_left": true, "missing_type": "None", "internal_value": 0.00651758, "internal_weight": 33.0758, "internal_count": 589, "left_child": {"leaf_index": 9, "leaf_value": -0.020925079029681062, "leaf_weight": 13.093857621541245, "leaf_count": 238}, "right_child": {"leaf_index": 24, "leaf_value": 0.02450034831883669, "leaf_weight": 19.981926943350118, "leaf_count": 351}}, "right_child": {"split_index": 28, "split_feature": 0, "split_gain": 5.326980113983154, "threshold": 0.4854615857457262, "decision_type": "<=", "default_left": true, "missing_type": "None", "internal_value": 0.0399336, "internal_weight": 131.058, "internal_count": 2082, "left_child": {"leaf_index": 16, "leaf_value": 0.019796846127669132, "leaf_weight": 26.26169549115002, "leaf_count": 410}, "right_child": {"leaf_index": 29, "leaf_value": 0.044979867999074385, "leaf_weight": 104.7961108997406, "leaf_count": 1672}}}}}, "right_child": {"split_index": 5, "split_feature": 1, "split_gain": 76.3666000366211, "threshold": 17.206772121399165, "decision_type": "<=", "default_left": true, "missing_type": "None", "internal_value": 0.0489187, "internal_weight": 2117.92, "internal_count": 40269, "left_child": {"split_index": 11, "split_feature": 4, "split_gain": 16.546100616455078, "threshold": 0.2499247366660637, "decision_type": "<=", "default_left": true, "missing_type": "None", "internal_value": 0.0391914, "internal_weight": 1033.3, "internal_count": 21268, "left_child": {"split_index": 12, "split_feature": 0, "split_gain": 26.884599685668945, "threshold": 0.5619959970086766, "decision_type": "<=", "default_left": true, "missing_type": "None", "internal_value": 0.0365197, "internal_weight": 876.939, "internal_count": 18330, "left_child": {"leaf_index": 2, "leaf_value": 0.030505562433022215, "leaf_weight": 595.7772320188305, "leaf_count": 12053}, "right_child": {"split_index": 29, "split_feature": 1, "split_gain": 4.980050086975098, "threshold": 11.142935411732962, "decision_type": "<=", "default_left": true, "missing_type": "None", "internal_value": 0.0492636, "internal_weight": 281.161, "internal_count": 6277, "left_child": {"leaf_index": 13, "leaf_value": 0.03807005538780328, "leaf_weight": 73.41930695576593, "leaf_count": 1841}, "right_child": {"leaf_index": 30, "leaf_value": 0.05321952160359555, "leaf_weight": 207.74198949845595, "leaf_count": 4436}}}, "right_child": {"leaf_index": 12, "leaf_value": 0.054175217192160854, "leaf_weight": 156.36237805432756, "leaf_count": 2938}}, "right_child": {"split_index": 7, "split_feature": 4, "split_gain": 52.113399505615234, "threshold": 0.23127974511508456, "decision_type": "<=", "default_left": true, "missing_type": "None", "internal_value": 0.0581858, "internal_weight": 1084.62, "internal_count": 19001, "left_child": {"split_index": 19, "split_feature": 4, "split_gain": 8.145589828491211, "threshold": 0.17717648580358297, "decision_type": "<=", "default_left": true, "missing_type": "None", "internal_value": 0.0511954, "internal_weight": 770.978, "internal_count": 14127, "left_child": {"leaf_index": 6, "leaf_value": 0.04404871731067819, "leaf_weight": 262.80162086716155, "leaf_count": 5009}, "right_child": {"split_index": 20, "split_feature": 0, "split_gain": 23.59760093688965, "threshold": 0.5526318669337652, "decision_type": "<=", "default_left": true, "missing_type": "None", "internal_value": 0.0548913, "internal_weight": 508.177, "internal_count": 9118, "left_child": {"split_index": 27, "split_feature": 0, "split_gain": 5.343679904937744, "threshold": 0.5310591566819723, "decision_type": "<=", "default_left": true, "missing_type": "None", "internal_value": 0.043208, "internal_weight": 233.557, "internal_count": 4086, "left_child": {"leaf_index": 20, "leaf_value": 0.03388955059936429, "leaf_weight": 92.75173576713132, "leaf_count": 1648}, "right_child": {"leaf_index": 28, "leaf_value": 0.04934622032050531, "leaf_weight": 140.80564087145467, "leaf_count": 2438}}, "right_child": {"leaf_index": 21, "leaf_value": 0.06482762371978257, "leaf_weight": 274.6192112873832, "leaf_count": 5032}}}, "right_child": {"split_index": 22, "split_feature": 1, "split_gain": 6.6336798667907715, "threshold": 24.378568909472225, "decision_type": "<=", "default_left": true, "missing_type": "None", "internal_value": 0.0753693, "internal_weight": 313.638, "internal_count": 4874, "left_child": {"leaf_index": 8, "leaf_value": 0.06868468789882048, "leaf_weight": 169.98735287648742, "leaf_count": 2830}, "right_child": {"leaf_index": 23, "leaf_value": 0.0832795300602491, "leaf_weight": 143.6505950786668, "leaf_count": 2044}}}}}}}, {"tree_index": 1, "num_leaves": 31, "num_cat": 0, "shrinkage": 0.05, "tree_structure": {"split_index": 0, "split_feature": 0, "split_gain": 10178.7001953125, "threshold": 0.5085458050516211, "decision_type": "<=", "default_left": true, "missing_type": "None", "internal_value": 0, "internal_weight": 0, "internal_count": 335674, "left_child": {"split_index": 1, "split_feature": 0, "split_gain": 1969.8699951171875, "threshold": 0.4652397189645423, "decision_type": "<=", "default_left": true, "missing_type": "None", "internal_value": -0.019951, "internal_weight": 29356.4, "internal_count": 211350, "left_child": {"split_index": 6, "split_feature": 0, "split_gain": 215.58799743652344, "threshold": 0.44769962281315306, "decision_type": "<=", "default_left": true, "missing_type": "None", "internal_value": -0.0351351, "internal_weight": 12363.9, "internal_count": 96364, "left_child": {"split_index": 8, "split_feature": 0, "split_gain": 54.21009826660156, "threshold": 0.4267882877187494, "decision_type": "<=", "default_left": true, "missing_type": "None", "internal_value": -0.040894, "internal_weight": 7021.7, "internal_count": 55486, "left_child": {"leaf_index": 0, "leaf_value": -0.04660228113575356, "leaf_weight": 2612.03057063272, "leaf_count": 21245}, "right_child": {"split_index": 9, "split_feature": 3, "split_gain": 56.02899932861328, "threshold": 12.733575242024026, "decision_type": "<=", "default_left": true, "missing_type": "None", "internal_value": -0.0375128, "internal_weight": 4409.67, "internal_count": 34241, "left_child": {"split_index": 28, "split_feature": 1, "split_gain": 13.688699722290039, "threshold": 7.87930982407177, "decision_type": "<=", "default_left": true, "missing_type": "None", "internal_value": -0.0403166, "internal_weight": 3534.87, "internal_count": 27417, "left_child": {"leaf_index": 9, "leaf_value": -0.04203141878151044, "leaf_weight": 2711.292628251016, "leaf_count": 21366}, "right_child": {"leaf_index": 29, "leaf_value": -0.034671090941712154, "leaf_weight": 823.5758916884661, "leaf_count": 6051}}, "right_child": {"leaf_index": 10, "leaf_value": -0.02618342985104785, "leaf_weight": 874.7990972411353, "leaf_count": 6824}}}, "right_child": {"split_index": 12, "split_feature": 3, "split_gain": 36.78329849243164, "threshold": 13.573536319831414, "decision_type": "<=", "default_left": true, "missing_type": "None", "internal_value": -0.0275656, "internal_weight": 5342.16, "internal_count": 40878, "left_child": {"split_index": 13, "split_feature": 1, "split_gain": 36.19969940185547, "threshold": 9.582260993134618, "decision_type": "<=", "default_left": true, "missing_type": "None", "internal_value": -0.0297462, "internal_weight": 4185.88, "internal_count": 31681, "left_child": {"split_index": 22, "split_feature": 0, "split_gain": 22.326200485229492, "threshold": 0.45717883972932494, "decision_type": "<=", "default_left": true, "missing_type": "None", "internal_value": -0.0322253, "internal_weight": 3259.32, "internal_count": 24800, "left_child": {"leaf_index": 7, "leaf_value": -0.03623049543681209, "leaf_weight": 1682.8958564812492, "leaf_count": 13117}, "right_child": {"leaf_index": 23, "leaf_value": -0.027949626491590964, "leaf_weight": 1576.425244247308, "leaf_count": 11683}}, "right_child": {"leaf_index": 14, "leaf_value": -0.02102537586524935, "leaf_weight": 926.5600690889405, "leaf_count": 6881}}, "right_child": {"split_index": 20, "split_feature": 1, "split_gain": 24.75550079345703, "threshold": 6.206029218654309, "decision_type": "<=", "default_left": true, "missing_type": "None", "internal_value": -0.0196715, "internal_weight": 1156.28, "internal_count": 9197, "left_child": {"leaf_index": 13, "leaf_value": 0.0017764859564002476, "leaf_weight": 120.51374443806708, "leaf_count": 851}, "right_child": {"leaf_index": 21, "leaf_value": -0.02216706423719727, "leaf_weight": 1035.7677131979726, "leaf_count": 8346}}}}, "right_child": {"split_index": 5, "split_feature": 0, "split_gain": 233.18699645996094, "threshold": 0.4889267442593959, "decision_type": "<=", "default_left": true, "missing_type": "None", "internal_value": -0.00890294, "internal_weight": 16992.6, "internal_count": 114986, "left_child": {"split_index": 15, "split_feature": 0, "split_gain": 32.568199157714844, "threshold": 0.4816535237451761, "decision_type": "<=", "default_left": true, "missing_type": "None", "internal_value": -0.014696, "internal_weight": 8589.92, "internal_count": 63424, "left_child": {"leaf_index": 2, "leaf_value": -0.016745418919973803, "leaf_weight": 5952.295680994648, "leaf_count": 43528}, "right_child": {"split_index": 16, "split_feature": 1, "split_gain": 49.83829879760742, "threshold": 12.801087279400724, "decision_type": "<=", "default_left": true, "missing_type": "None", "internal_value": -0.010071, "internal_weight": 2637.63, "internal_count": 19896, "left_child": {"leaf_index": 16, "leaf_value": -0.014391641164013043, "leaf_weight": 1890.5167948413582, "leaf_count": 14679}, "right_child": {"leaf_index": 17, "leaf_value": 0.0008620793052876541, "leaf_weight": 747.1088082056958, "leaf_count": 5217}}}, "right_child": {"split_index": 17, "split_feature": 3, "split_gain": 26.996999740600586, "threshold": 1.0000000180025095e-35, "decision_type": "<=", "default_left": true, "missing_type": "None", "internal_value": -0.0029808, "internal_weight": 8402.67, "internal_count": 51562, "left_child": {"leaf_index": 6, "leaf_value": 0.001206197680130701, "leaf_weight": 2640.2173489407432, "leaf_count": 16078}, "right_child": {"split_index": 18, "split_feature": 3, "split_gain": 29.0093994140625, "threshold": 29.480670443842012, "decision_type": "<=", "default_left": true, "missing_type": "None", "internal_value": -0.00489918, "internal_weight": 5762.45, "internal_count": 35484, "left_child": {"leaf_index": 18, "leaf_value": -0.005666185112331461, "leaf_weight": 5505.119127713639, "leaf_count": 33978}, "right_child": {"leaf_index": 19, "leaf_value": 0.011509531404935908, "leaf_weight": 257.3295563196298, "leaf_count": 1506}}}}}, "right_child": {"split_index": 2, "split_feature": 0, "split_gain": 1473.8599853515625, "threshold": 0.5526318669337652, "decision_type": "<=", "default_left": true, "missing_type": "None", "internal_value": 0.0234967, "internal_weight": 24926.4, "internal_count": 124324, "left_child": {"split_index": 4, "split_feature": 0, "split_gain": 277.39300537109375, "threshold": 0.5310591566819723, "decision_type": "<=", "default_left": true, "missing_type": "None", "internal_value": 0.0146069, "internal_weight": 16242.7, "internal_count": 84558, "left_child": {"split_index": 10, "split_feature": 0, "split_gain": 46.409000396728516, "threshold": 0.5220064716473033, "decision_type": "<=", "default_left": true, "missing_type": "None", "internal_value": 0.00909118, "internal_weight": 9484.4, "internal_count": 50083, "left_child": {"split_index": 21, "split_feature": 1, "split_gain": 24.572099685668945, "threshold": 20.049130238213255, "decision_type": "<=", "default_left": true, "missing_type": "None", "internal_value": 0.00630068, "internal_weight": 5795.36, "internal_count": 31606, "left_child": {"leaf_index": 1, "leaf_value": 0.005110544955490962, "leaf_weight": 5112.235806709388, "leaf_count": 28444}, "right_child": {"leaf_index": 22, "leaf_value": 0.015207160381460569, "leaf_weight": 683.1248640567064, "leaf_count": 3162}}, "right_child": {"split_index": 11, "split_feature": 1, "split_gain": 70.1521987915039, "threshold": 15.646034709357842, "decision_type": "<=", "default_left": true, "missing_type": "None", "internal_value": 0.013475, "internal_weight": 3689.04, "internal_count": 18477, "left_child": {"leaf_index": 11, "leaf_value": 0.008890130163544556, "leaf_weight": 2557.996607366076, "leaf_count": 13820}, "right_child": {"leaf_index": 12, "leaf_value": 0.023844126382534345, "leaf_weight": 1131.0468676481396, "leaf_count": 4657}}}, "right_child": {"split_index": 23, "split_feature": 0, "split_gain": 20.58060073852539, "threshold": 0.5345776178911367, "decision_type": "<=", "default_left": true, "missing_type": "None", "internal_value": 0.0223475, "internal_weight": 6758.27, "internal_count": 34475, "left_child": {"leaf_index": 5, "leaf_value": 0.016654434386324562, "leaf_weight": 1285.5020105940057, "leaf_count": 6545}, "right_child": {"leaf_index": 24, "leaf_value": 0.023684786062190853, "leaf_weight": 5472.77154938053, "leaf_count": 27930}}}, "right_child": {"split_index": 3, "split_feature": 1, "split_gain": 305.9960021972656, "threshold": 14.019117135659064, "decision_type": "<=", "default_left": true, "missing_type": "None", "internal_value": 0.0401248, "internal_weight": 8683.75, "internal_count": 39766, "left_child": {"split_index": 14, "split_feature": 0, "split_gain": 33.09450149536133, "threshold": 0.5594353753914499, "decision_type": "<=", "default_left": true, "missing_type": "None", "internal_value": 0.0287193, "internal_weight": 3506.24, "internal_count": 19634, "left_child": {"leaf_index": 3, "leaf_value": 0.019496988129429203, "leaf_weight": 761.5025495013688, "leaf_count": 4659}, "right_child": {"split_index": 24, "split_feature": 3, "split_gain": 18.966999053955078, "threshold": 14.904201755604406, "decision_type": "<=", "default_left": true, "missing_type": "None", "internal_value": 0.031278, "internal_weight": 2744.74, "internal_count": 14975, "left_child": {"leaf_index": 15, "leaf_value": 0.02929563034553937, "leaf_weight": 2236.083664955746, "leaf_count": 11928}, "right_child": {"leaf_index": 25, "leaf_value": 0.039992714077796615, "leaf_weight": 508.65188760717865, "leaf_count": 3047}}}, "right_child": {"split_index": 7, "split_feature": 0, "split_gain": 161.81100463867188, "threshold": 0.5884810589990591, "decision_type": "<=", "default_left": true, "missing_type": "None", "internal_value": 0.0478487, "internal_weight": 5177.51, "internal_count": 20132, "left_child": {"split_index": 25, "split_feature": 0, "split_gain": 16.480899810791016, "threshold": 0.5760064643611056, "decision_type": "<=", "default_left": true, "missing_type": "None", "internal_value": 0.0411278, "internal_weight": 3280.78, "internal_count": 13286, "left_child": {"split_index": 26, "split_feature": 1, "split_gain": 37.32720184326172, "threshold": 22.236196010299214, "decision_type": "<=", "default_left": true, "missing_type": "None", "internal_value": 0.0390188, "internal_weight": 2422.73, "internal_count": 9878, "left_child": {"leaf_index": 4, "leaf_value": 0.03502762619128003, "leaf_weight": 1713.9238469621632, "leaf_count": 7262}, "right_child": {"leaf_index": 27, "leaf_value": 0.04866954790208685, "leaf_weight": 708.8057663408108, "leaf_count": 2616}}, "right_child": {"leaf_index": 26, "leaf_value": 0.04708260315126941, "leaf_weight": 858.0475953486748, "leaf_count": 3408}}, "right_child": {"split_index": 19, "split_feature": 0, "split_gain": 25.65060043334961, "threshold": 0.6587775813556649, "decision_type": "<=", "default_left": true, "missing_type": "None", "internal_value": 0.0594738, "internal_weight": 1896.74, "internal_count": 6846, "left_child": {"split_index": 27, "split_feature": 1, "split_gain": 15.219599723815918, "threshold": 17.335956846623336, "decision_type": "<=", "default_left": true, "missing_type": "None", "internal_value": 0.0563917, "internal_weight": 1480.7, "internal_count": 5730, "left_child": {"split_index": 29, "split_feature": 0, "split_gain": 13.279500007629395, "threshold": 0.6003201438274066, "decision_type": "<=", "default_left": true, "missing_type": "None", "internal_value": 0.0477341, "internal_weight": 378.032, "internal_count": 1576, "left_child": {"leaf_index": 8, "leaf_value": 0.03676674048119778, "leaf_weight": 159.5302301584743, "leaf_count": 679}, "right_child": {"leaf_index": 30, "leaf_value": 0.05574151276986508, "leaf_weight": 218.50201829185244, "leaf_count": 897}}, "right_child": {"leaf_index": 28, "leaf_value": 0.059359817643762226, "leaf_weight": 1102.669571723207, "leaf_count": 4154}}, "right_child": {"leaf_index": 20, "leaf_value": 0.0704432370494731, "leaf_weight": 416.0350308259949, "leaf_count": 1116}}}}}}}, {"tree_index": 2, "num_leaves": 31, "num_cat": 0, "shrinkage": 0.05, "tree_structure": {"split_index": 0, "split_feature": 4, "split_gain": 4026.8798828125, "threshold": 0.152889184623105, "decision_type": "<=", "default_left": true, "missing_type": "None", "internal_value": 0, "internal_weight": 0, "internal_count": 335674, "left_child": {"split_index": 1, "split_feature": 4, "split_gain": 908.3590087890625, "threshold": 0.04811381540396671, "decision_type": "<=", "default_left": true, "missing_type": "None", "internal_value": -0.00856288, "internal_weight": 36570.3, "internal_count": 269491, "left_child": {"split_index": 2, "split_feature": 3, "split_gain": 177.6510009765625, "threshold": 9.946289593534557, "decision_type": "<=", "default_left": true, "missing_type": "None", "internal_value": -0.0196583, "internal_weight": 12261.5, "internal_count": 103387, "left_child": {"split_index": 6, "split_feature": 4, "split_gain": 42.64509963989258, "threshold": 0.03612377399301671, "decision_type": "<=", "default_left": true, "missing_type": "None", "internal_value": -0.0220889, "internal_weight": 10542.1, "internal_count": 88419, "left_child": {"leaf_index": 0, "leaf_value": -0.023757079694359317, "leaf_weight": 8267.164915535715, "leaf_count": 70560}, "right_child": {"leaf_index": 7, "leaf_value": -0.016026604577390472, "leaf_weight": 2274.9267820984824, "leaf_count": 17859}}, "right_child": {"split_index": 13, "split_feature": 3, "split_gain": 26.769699096679688, "threshold": 22.64028482131778, "decision_type": "<=", "default_left": true, "missing_type": "None", "internal_value": -0.00475603, "internal_weight": 1719.43, "internal_count": 14968, "left_child": {"leaf_index": 3, "leaf_value": -0.006654974665169135, "leaf_weight": 1573.639811020228, "leaf_count": 13835}, "right_child": {"leaf_index": 14, "leaf_value": 0.015740866145401555, "leaf_weight": 145.79024493135512, "leaf_count": 1133}}}, "right_child": {"split_index": 3, "split_feature": 4, "split_gain": 139.38800048828125, "threshold": 0.09726629715880124, "decision_type": "<=", "default_left": true, "missing_type": "None", "internal_value": -0.00296627, "internal_weight": 24308.8, "internal_count": 166104, "left_child": {"split_index": 4, "split_feature": 3, "split_gain": 59.95109939575195, "threshold": 12.486760187194067, "decision_type": "<=", "default_left": true, "missing_type": "None", "internal_value": -0.00679513, "internal_weight": 12018.2, "internal_count": 86019, "left_child": {"split_index": 5, "split_feature": 2, "split_gain": 55.85210037231445, "threshold": 15.784596292394182, "decision_type": "<=", "default_left": true, "missing_type": "None", "internal_value": -0.00900642, "internal_weight": 8633.13, "internal_count": 60182, "left_child": {"leaf_index": 2, "leaf_value": -0.009926429427248638, "leaf_weight": 8203.804746359237, "leaf_count": 57262}, "right_child": {"split_index": 21, "split_feature": 2, "split_gain": 15.04800033569336, "threshold": 46.50741470631585, "decision_type": "<=", "default_left": true, "missing_type": "None", "internal_value": 0.00857363, "internal_weight": 429.325, "internal_count": 2920, "left_child": {"leaf_index": 6, "leaf_value": 0.007471156021092715, "leaf_weight": 423.45109753357247, "leaf_count": 2904}, "right_child": {"leaf_index": 22, "leaf_value": 0.08805473553271032, "leaf_weight": 5.8736625984311095, "leaf_count": 16}}}, "right_child": {"split_index": 14, "split_feature": 3, "split_gain": 25.25629997253418, "threshold": 30.716847290685642, "decision_type": "<=", "default_left": true, "missing_type": "None", "internal_value": -0.00115548, "internal_weight": 3385.04, "internal_count": 25837, "left_child": {"leaf_index": 5, "leaf_value": -0.0020303242750608383, "leaf_weight": 3251.617440479109, "leaf_count": 24904}, "right_child": {"leaf_index": 15, "leaf_value": 0.02016595285271148, "leaf_weight": 133.41774587286636, "leaf_count": 933}}}, "right_child": {"split_index": 7, "split_feature": 2, "split_gain": 36.86429977416992, "threshold": 18.553446026884796, "decision_type": "<=", "default_left": true, "missing_type": "None", "internal_value": 0.000777713, "internal_weight": 12290.6, "internal_count": 80085, "left_child": {"split_index": 17, "split_feature": 3, "split_gain": 20.968299865722656, "threshold": 0.7021958252801993, "decision_type": "<=", "default_left": true, "missing_type": "None", "internal_value": -0.00040354, "internal_weight": 10362.3, "internal_count": 67073, "left_child": {"split_index": 22, "split_feature": 2, "split_gain": 14.901599884033203, "threshold": 7.43828658265993, "decision_type": "<=", "default_left": true, "missing_type": "None", "internal_value": 0.00322066, "internal_weight": 2881.28, "internal_count": 16972, "left_child": {"split_index": 23, "split_feature": 4, "split_gain": 20.539100646972656, "threshold": 0.11665810716822433, "decision_type": "<=", "default_left": true, "missing_type": "None", "internal_value": 0.00175414, "internal_weight": 2470.37, "internal_count": 14543, "left_child": {"leaf_index": 4, "leaf_value": -0.0043621467906758745, "leaf_weight": 882.3479664770421, "leaf_count": 5483}, "right_child": {"leaf_index": 24, "leaf_value": 0.005152516468385479, "leaf_weight": 1588.0184247519355, "leaf_count": 9060}}, "right_child": {"leaf_index": 23, "leaf_value": 0.012037256283352876, "leaf_weight": 410.9115357478149, "leaf_count": 2429}}, "right_child": {"split_index": 18, "split_feature": 3, "split_gain": 27.790000915527344, "threshold": 23.314766632002193, "decision_type": "<=", "default_left": true, "missing_type": "None", "internal_value": -0.00179938, "internal_weight": 7481.04, "internal_count": 50101, "left_child": {"split_index": 20, "split_feature": 4, "split_gain": 17.240699768066406, "threshold": 0.13257459850821754, "decision_type": "<=", "default_left": true, "missing_type": "None", "internal_value": -0.00271003, "internal_weight": 6867.76, "internal_count": 45801, "left_child": {"leaf_index": 18, "leaf_value": -0.004340633805566036, "leaf_weight": 4824.021471958491, "leaf_count": 32700}, "right_child": {"leaf_index": 21, "leaf_value": 0.0011388161598197344, "leaf_weight": 2043.743124959292, "leaf_count": 13101}}, "right_child": {"split_index": 24, "split_feature": 4, "split_gain": 12.303000450134277, "threshold": 0.1372204083672698, "decision_type": "<=", "default_left": true, "missing_type": "None", "internal_value": 0.00839856, "internal_weight": 613.277, "internal_count": 4300, "left_child": {"leaf_index": 19, "leaf_value": 0.0036979556495973353, "leaf_weight": 425.71858256449923, "leaf_count": 3090}, "right_child": {"leaf_index": 25, "leaf_value": 0.01906797897767857, "leaf_weight": 187.558015354909, "leaf_count": 1210}}}}, "right_child": {"split_index": 8, "split_feature": 3, "split_gain": 46.42340087890625, "threshold": 9.427648748272281, "decision_type": "<=", "default_left": true, "missing_type": "None", "internal_value": 0.0071256, "internal_weight": 1928.28, "internal_count": 13012, "left_child": {"leaf_index": 8, "leaf_value": 0.02257115967577682, "leaf_weight": 388.4765696763061, "leaf_count": 2181}, "right_child": {"leaf_index": 9, "leaf_value": 0.003228855772340673, "leaf_weight": 1539.8073539861944, "leaf_count": 10831}}}}}, "right_child": {"split_index": 9, "split_feature": 3, "split_gain": 29.752599716186523, "threshold": 0.6118492984504514, "decision_type": "<=", "default_left": true, "missing_type": "None", "internal_value": 0.0235856, "internal_weight": 13277, "internal_count": 66183, "left_child": {"split_index": 10, "split_feature": 4, "split_gain": 319.4949951171875, "threshold": 0.21685209529907815, "decision_type": "<=", "default_left": true, "missing_type": "None", "internal_value": 0.0269883, "internal_weight": 4329.43, "internal_count": 19421, "left_child": {"split_index": 16, "split_feature": 4, "split_gain": 22.721500396728516, "threshold": 0.18398127881483703, "decision_type": "<=", "default_left": true, "missing_type": "None", "internal_value": 0.0169903, "internal_weight": 2808.01, "internal_count": 13766, "left_child": {"leaf_index": 1, "leaf_value": 0.012465526673932246, "leaf_weight": 1395.5774102238938, "leaf_count": 7086}, "right_child": {"leaf_index": 17, "leaf_value": 0.02146106224041679, "leaf_weight": 1412.4292233927408, "leaf_count": 6680}}, "right_child": {"split_index": 15, "split_feature": 4, "split_gain": 23.784299850463867, "threshold": 0.23127974511508456, "decision_type": "<=", "default_left": true, "missing_type": "None", "internal_value": 0.045441, "internal_weight": 1521.43, "internal_count": 5655, "left_child": {"leaf_index": 11, "leaf_value": 0.03252111240492256, "leaf_weight": 288.6367958029732, "leaf_count": 1275}, "right_child": {"leaf_index": 16, "leaf_value": 0.04846596186876384, "leaf_weight": 1232.7889142321656, "leaf_count": 4380}}}, "right_child": {"split_index": 11, "split_feature": 4, "split_gain": 224.0540008544922, "threshold": 0.23127974511508456, "decision_type": "<=", "default_left": true, "missing_type": "None", "internal_value": 0.0219392, "internal_weight": 8947.61, "internal_count": 46762, "left_child": {"split_index": 25, "split_feature": 2, "split_gain": 12.041299819946289, "threshold": 30.446834727562237, "decision_type": "<=", "default_left": true, "missing_type": "None", "internal_value": 0.0178872, "internal_weight": 7088.47, "internal_count": 38943, "left_child": {"split_index": 26, "split_feature": 4, "split_gain": 74.3125, "threshold": 0.17466204894253937, "decision_type": "<=", "default_left": true, "missing_type": "None", "internal_value": 0.0173708, "internal_weight": 6669.76, "internal_count": 36606, "left_child": {"split_index": 27, "split_feature": 3, "split_gain": 14.246199607849121, "threshold": 3.237444128643498, "decision_type": "<=", "default_left": true, "missing_type": "None", "internal_value": 0.010388, "internal_weight": 2424.92, "internal_count": 13940, "left_child": {"leaf_index": 10, "leaf_value": -0.011756998169977937, "leaf_weight": 70.51319705834612, "leaf_count": 405}, "right_child": {"leaf_index": 28, "leaf_value": 0.011051275417059685, "leaf_weight": 2354.4072859464213, "leaf_count": 13535}}, "right_child": {"split_index": 28, "split_feature": 3, "split_gain": 13.785699844360352, "threshold": 15.361639836133149, "decision_type": "<=", "default_left": true, "missing_type": "None", "internal_value": 0.0213598, "internal_weight": 4244.84, "internal_count": 22666, "left_child": {"leaf_index": 27, "leaf_value": 0.024179410083480804, "leaf_weight": 2144.7391668797936, "leaf_count": 11163}, "right_child": {"split_index": 29, "split_feature": 3, "split_gain": 12.335100173950195, "threshold": 30.077912043811207, "decision_type": "<=", "default_left": true, "missing_type": "None", "internal_value": 0.0184803, "internal_weight": 2100.1, "internal_count": 11503, "left_child": {"leaf_index": 29, "leaf_value": 0.01708181595848658, "leaf_weight": 1853.2680927442852, "leaf_count": 10160}, "right_child": {"leaf_index": 30, "leaf_value": 0.02898035283026706, "leaf_weight": 246.83010550169274, "leaf_count": 1343}}}}, "right_child": {"leaf_index": 26, "leaf_value": 0.026111944403790874, "leaf_weight": 418.7157908985391, "leaf_count": 2337}}, "right_child": {"split_index": 12, "split_feature": 2, "split_gain": 40.140201568603516, "threshold": 5.641073756884446, "decision_type": "<=", "default_left": true, "missing_type": "None", "internal_value": 0.0373886, "internal_weight": 1859.14, "internal_count": 7819, "left_child": {"split_index": 19, "split_feature": 3, "split_gain": 17.382400512695312, "threshold": 31.48838792290692, "decision_type": "<=", "default_left": true, "missing_type": "None", "internal_value": 0.0452606, "internal_weight": 865.506, "internal_count": 3597, "left_child": {"leaf_index": 12, "leaf_value": 0.0429893817256416, "leaf_weight": 784.8706526360475, "leaf_count": 3310}, "right_child": {"leaf_index": 20, "leaf_value": 0.06736739629035497, "leaf_weight": 80.6352521139197, "leaf_count": 287}}, "right_child": {"leaf_index": 13, "leaf_value": 0.030531746196324636, "leaf_weight": 993.6308750968892, "leaf_count": 4222}}}}}}, {"tree_index": 3, "num_leaves": 31, "num_cat": 0, "shrinkage": 0.05, "tree_structure": {"split_index": 0, "split_feature": 2, "split_gain": 556.2239990234375, "threshold": 17.86435905976288, "decision_type": "<=", "default_left": true, "missing_type": "None", "internal_value": 0, "internal_weight": 0, "internal_count": 335674, "left_child": {"split_index": 1, "split_feature": 4, "split_gain": 2839.7900390625, "threshold": 0.152889184623105, "decision_type": "<=", "default_left": true, "missing_type": "None", "internal_value": -0.00209568, "internal_weight": 41683.9, "internal_count": 296566, "left_child": {"split_index": 2, "split_feature": 4, "split_gain": 617.8350219726562, "threshold": 0.04811381540396671, "decision_type": "<=", "default_left": true, "missing_type": "None", "internal_value": -0.00950532, "internal_weight": 31522.4, "internal_count": 245575, "left_child": {"split_index": 7, "split_feature": 2, "split_gain": 53.545501708984375, "threshold": 5.641073756884446, "decision_type": "<=", "default_left": true, "missing_type": "None", "internal_value": -0.0189246, "internal_weight": 11215.3, "internal_count": 101252, "left_child": {"split_index": 8, "split_feature": 3, "split_gain": 139.177001953125, "threshold": 11.08641409110219, "decision_type": "<=", "default_left": true, "missing_type": "None", "internal_value": -0.02033, "internal_weight": 9622.77, "internal_count": 86261, "left_child": {"split_index": 18, "split_feature": 4, "split_gain": 20.927400588989258, "threshold": 0.03612377399301671, "decision_type": "<=", "default_left": true, "missing_type": "None", "internal_value": -0.0222026, "internal_weight": 8772.04, "internal_count": 79245, "left_child": {"leaf_index": 0, "leaf_value": -0.023393728650221057, "leaf_weight": 7086.409110563574, "leaf_count": 64946}, "right_child": {"leaf_index": 19, "leaf_value": -0.017195276046364432, "leaf_weight": 1685.6291944670957, "leaf_count": 14299}}, "right_child": {"leaf_index": 9, "leaf_value": -0.0010211282830832034, "leaf_weight": 850.7351037005428, "leaf_count": 7016}}, "right_child": {"split_index": 28, "split_feature": 2, "split_gain": 8.160759925842285, "threshold": 13.259854383756043, "decision_type": "<=", "default_left": true, "missing_type": "None", "internal_value": -0.0104321, "internal_weight": 1592.51, "internal_count": 14991, "left_child": {"leaf_index": 8, "leaf_value": -0.012109343128403418, "leaf_weight": 1305.7691442650394, "leaf_count": 12337}, "right_child": {"split_index": 29, "split_feature": 4, "split_gain": 7.8424601554870605, "threshold": 1.0000000180025095e-35, "decision_type": "<=", "default_left": true, "missing_type": "None", "internal_value": -0.00279401, "internal_weight": 286.741, "internal_count": 2654, "left_child": {"leaf_index": 29, "leaf_value": 0.012578369826991244, "leaf_weight": 64.34876088402234, "leaf_count": 578}, "right_child": {"leaf_index": 30, "leaf_value": -0.0072419792607950105, "leaf_weight": 222.39216483244672, "leaf_count": 2076}}}}, "right_child": {"split_index": 5, "split_feature": 3, "split_gain": 57.69369888305664, "threshold": 17.103621186299005, "decision_type": "<=", "default_left": true, "missing_type": "None", "internal_value": -0.00430324, "internal_weight": 20307.2, "internal_count": 144323, "left_child": {"split_index": 6, "split_feature": 4, "split_gain": 101.7750015258789, "threshold": 0.09726629715880124, "decision_type": "<=", "default_left": true, "missing_type": "None", "internal_value": -0.00537924, "internal_weight": 17460.9, "internal_count": 123389, "left_child": {"split_index": 20, "split_feature": 2, "split_gain": 11.642399787902832, "threshold": 12.678836976379843, "decision_type": "<=", "default_left": true, "missing_type": "None", "internal_value": -0.00890701, "internal_weight": 9417.69, "internal_count": 70166, "left_child": {"split_index": 21, "split_feature": 3, "split_gain": 21.11910057067871, "threshold": 12.486760187194067, "decision_type": "<=", "default_left": true, "missing_type": "None", "internal_value": -0.00948221, "internal_weight": 8506.98, "internal_count": 63173, "left_child": {"leaf_index": 3, "leaf_value": -0.010485568226033287, "leaf_weight": 7319.6765714617795, "leaf_count": 54497}, "right_child": {"leaf_index": 22, "leaf_value": -0.00329657314822492, "leaf_weight": 1187.3060317998752, "leaf_count": 8676}}, "right_child": {"leaf_index": 21, "leaf_value": -0.0035340162243890057, "leaf_weight": 910.7080247071572, "leaf_count": 6993}}, "right_child": {"split_index": 13, "split_feature": 4, "split_gain": 22.30120086669922, "threshold": 0.12734854630304313, "decision_type": "<=", "default_left": true, "missing_type": "None", "internal_value": -0.00124862, "internal_weight": 8043.2, "internal_count": 53223, "left_child": {"leaf_index": 7, "leaf_value": -0.003394161539713078, "leaf_weight": 4833.366842310643, "leaf_count": 32692}, "right_child": {"leaf_index": 14, "leaf_value": 0.0019821232854730325, "leaf_weight": 3209.836625203956, "leaf_count": 20531}}}, "right_child": {"split_index": 22, "split_feature": 2, "split_gain": 11.094300270080566, "threshold": 16.261882307164644, "decision_type": "<=", "default_left": true, "missing_type": "None", "internal_value": 0.00229769, "internal_weight": 2846.27, "internal_count": 20934, "left_child": {"split_index": 23, "split_feature": 3, "split_gain": 15.133399963378906, "threshold": 34.56954519040685, "decision_type": "<=", "default_left": true, "missing_type": "None", "internal_value": 0.00314954, "internal_weight": 2649.01, "internal_count": 19382, "left_child": {"leaf_index": 6, "leaf_value": 0.0023278107413873808, "leaf_weight": 2529.4177502405364, "leaf_count": 18682}, "right_child": {"leaf_index": 24, "leaf_value": 0.02053009802839062, "leaf_weight": 119.58791555045173, "leaf_count": 700}}, "right_child": {"leaf_index": 23, "leaf_value": -0.009141560984783892, "leaf_weight": 197.26611435040832, "leaf_count": 1552}}}}, "right_child": {"split_index": 10, "split_feature": 2, "split_gain": 30.858800888061523, "threshold": 2.7915790559025377, "decision_type": "<=", "default_left": true, "missing_type": "None", "internal_value": 0.0208902, "internal_weight": 10161.4, "internal_count": 50991, "left_child": {"split_index": 14, "split_feature": 3, "split_gain": 21.27750015258789, "threshold": 32.29723687867937, "decision_type": "<=", "default_left": true, "missing_type": "None", "internal_value": 0.0227474, "internal_weight": 6987.15, "internal_count": 34431, "left_child": {"split_index": 15, "split_feature": 4, "split_gain": 303.9960021972656, "threshold": 0.21956622281897278, "decision_type": "<=", "default_left": true, "missing_type": "None", "internal_value": 0.0222082, "internal_weight": 6730.12, "internal_count": 33245, "left_child": {"split_index": 16, "split_feature": 4, "split_gain": 42.6593017578125, "threshold": 0.17850245235126297, "decision_type": "<=", "default_left": true, "missing_type": "None", "internal_value": 0.015327, "internal_weight": 4741.8, "internal_count": 25301, "left_child": {"leaf_index": 2, "leaf_value": 0.009716582390161117, "leaf_weight": 1976.1495040021837, "leaf_count": 11098}, "right_child": {"leaf_index": 17, "leaf_value": 0.019335802976243217, "leaf_weight": 2765.654913159553, "leaf_count": 14203}}, "right_child": {"leaf_index": 16, "leaf_value": 0.03861863961726922, "leaf_weight": 1988.3199242136907, "leaf_count": 7944}}, "right_child": {"split_index": 17, "split_feature": 4, "split_gain": 29.130699157714844, "threshold": 0.23127974511508456, "decision_type": "<=", "default_left": true, "missing_type": "None", "internal_value": 0.0368663, "internal_weight": 257.028, "internal_count": 1186, "left_child": {"leaf_index": 15, "leaf_value": 0.02590056454521361, "leaf_weight": 180.44749475386925, "leaf_count": 925}, "right_child": {"leaf_index": 18, "leaf_value": 0.06270510653109333, "leaf_weight": 76.58029346913099, "leaf_count": 261}}}, "right_child": {"split_index": 11, "split_feature": 4, "split_gain": 48.667198181152344, "threshold": 0.2629983904674352, "decision_type": "<=", "default_left": true, "missing_type": "None", "internal_value": 0.0168022, "internal_weight": 3174.29, "internal_count": 16560, "left_child": {"split_index": 19, "split_feature": 4, "split_gain": 16.811199188232422, "threshold": 0.17717648580358297, "decision_type": "<=", "default_left": true, "missing_type": "None", "internal_value": 0.0147514, "internal_weight": 2860.41, "internal_count": 15176, "left_child": {"split_index": 24, "split_feature": 2, "split_gain": 10.415200233459473, "threshold": 4.648113768038271, "decision_type": "<=", "default_left": true, "missing_type": "None", "internal_value": 0.00978278, "internal_weight": 1067.24, "internal_count": 6130, "left_child": {"leaf_index": 11, "leaf_value": -0.01124344434103711, "leaf_weight": 55.81581972632557, "leaf_count": 314}, "right_child": {"leaf_index": 25, "leaf_value": 0.010943120205730508, "leaf_weight": 1011.4255618096795, "leaf_count": 5816}}, "right_child": {"split_index": 26, "split_feature": 2, "split_gain": 9.726940155029297, "threshold": 13.919892549760519, "decision_type": "<=", "default_left": true, "missing_type": "None", "internal_value": 0.0177085, "internal_weight": 1793.17, "internal_count": 9046, "left_child": {"leaf_index": 20, "leaf_value": 0.02025691843188993, "leaf_weight": 1212.5146882785484, "leaf_count": 5942}, "right_child": {"leaf_index": 27, "leaf_value": 0.012387066712818936, "leaf_weight": 580.6533278843854, "leaf_count": 3104}}}, "right_child": {"leaf_index": 12, "leaf_value": 0.03549167628187558, "leaf_weight": 313.8807056413498, "leaf_count": 1384}}}}, "right_child": {"split_index": 3, "split_feature": 4, "split_gain": 228.5469970703125, "threshold": 0.17717648580358297, "decision_type": "<=", "default_left": true, "missing_type": "None", "internal_value": 0.0138226, "internal_weight": 6319.81, "internal_count": 39108, "left_child": {"split_index": 4, "split_feature": 3, "split_gain": 58.941001892089844, "threshold": 11.548481720202151, "decision_type": "<=", "default_left": true, "missing_type": "None", "internal_value": 0.0071667, "internal_weight": 4241.47, "internal_count": 28868, "left_child": {"split_index": 25, "split_feature": 2, "split_gain": 9.75487995147705, "threshold": 30.446834727562237, "decision_type": "<=", "default_left": true, "missing_type": "None", "internal_value": 0.016775, "internal_weight": 1159.71, "internal_count": 6665, "left_child": {"leaf_index": 1, "leaf_value": 0.014790810609585548, "leaf_weight": 976.832541290205, "leaf_count": 5682}, "right_child": {"leaf_index": 26, "leaf_value": 0.027373246181829687, "leaf_weight": 182.87830835476052, "leaf_count": 983}}, "right_child": {"split_index": 12, "split_feature": 2, "split_gain": 23.534799575805664, "threshold": 32.17952065880339, "decision_type": "<=", "default_left": true, "missing_type": "None", "internal_value": 0.00355097, "internal_weight": 3081.76, "internal_count": 22203, "left_child": {"split_index": 27, "split_feature": 4, "split_gain": 8.973790168762207, "threshold": 0.1633684814055543, "decision_type": "<=", "default_left": true, "missing_type": "None", "internal_value": 0.00193189, "internal_weight": 2709.7, "internal_count": 19695, "left_child": {"leaf_index": 5, "leaf_value": 0.000905519325976837, "leaf_weight": 2403.8431271188892, "leaf_count": 17872}, "right_child": {"leaf_index": 28, "leaf_value": 0.009998453310612668, "leaf_weight": 305.8606630358845, "leaf_count": 1823}}, "right_child": {"leaf_index": 13, "leaf_value": 0.015342871176295104, "leaf_weight": 372.0537795628188, "leaf_count": 2508}}}, "right_child": {"split_index": 9, "split_feature": 4, "split_gain": 46.953399658203125, "threshold": 0.24322000157922327, "decision_type": "<=", "default_left": true, "missing_type": "None", "internal_value": 0.0274059, "internal_weight": 2078.35, "internal_count": 10240, "left_child": {"leaf_index": 4, "leaf_value": 0.022953102516757706, "leaf_weight": 1538.3185554527445, "leaf_count": 7974}, "right_child": {"leaf_index": 10, "leaf_value": 0.04008996807800824, "leaf_weight": 540.0277178836986, "leaf_count": 2266}}}}}, {"tree_index": 4, "num_leaves": 31, "num_cat": 0, "shrinkage": 0.05, "tree_structure": {"split_index": 0, "split_feature": 1, "split_gain": 2694.969970703125, "threshold": 12.584298506839653, "decision_type": "<=", "default_left": true, "missing_type": "None", "internal_value": 0, "internal_weight": 0, "internal_count": 335674, "left_child": {"split_index": 1, "split_feature": 4, "split_gain": 417.760986328125, "threshold": 0.04811381540396671, "decision_type": "<=", "default_left": true, "missing_type": "None", "internal_value": -0.00967251, "internal_weight": 28239.3, "internal_count": 230270, "left_child": {"split_index": 4, "split_feature": 3, "split_gain": 136.29200744628906, "threshold": 9.946289593534557, "decision_type": "<=", "default_left": true, "missing_type": "None", "internal_value": -0.0173771, "internal_weight": 10840.2, "internal_count": 102751, "left_child": {"split_index": 17, "split_feature": 1, "split_gain": 29.276599884033203, "threshold": 5.83777342141362, "decision_type": "<=", "default_left": true, "missing_type": "None", "internal_value": -0.019758, "internal_weight": 9183.93, "internal_count": 88164, "left_child": {"leaf_index": 0, "leaf_value": -0.020701825719066418, "leaf_weight": 8260.62556410022, "leaf_count": 78972}, "right_child": {"leaf_index": 18, "leaf_value": -0.011313975721291007, "leaf_weight": 923.3018935678992, "leaf_count": 9192}}, "right_child": {"split_index": 16, "split_feature": 3, "split_gain": 31.22719955444336, "threshold": 22.64028482131778, "decision_type": "<=", "default_left": true, "missing_type": "None", "internal_value": -0.00417532, "internal_weight": 1656.28, "internal_count": 14587, "left_child": {"leaf_index": 5, "leaf_value": -0.0063250004508807805, "leaf_weight": 1508.397621183889, "leaf_count": 13604}, "right_child": {"leaf_index": 17, "leaf_value": 0.01775087092881416, "leaf_weight": 147.88612927915528, "leaf_count": 983}}}, "right_child": {"split_index": 3, "split_feature": 4, "split_gain": 148.843994140625, "threshold": 0.17466204894253937, "decision_type": "<=", "default_left": true, "missing_type": "None", "internal_value": -0.00487227, "internal_weight": 17399.1, "internal_count": 127519, "left_child": {"split_index": 9, "split_feature": 3, "split_gain": 55.155601501464844, "threshold": 15.457134331057667, "decision_type": "<=", "default_left": true, "missing_type": "None", "internal_value": -0.00656076, "internal_weight": 15352.5, "internal_count": 116064, "left_child": {"split_index": 18, "split_feature": 4, "split_gain": 27.403200149536133, "threshold": 0.1130436074242132, "decision_type": "<=", "default_left": true, "missing_type": "None", "internal_value": -0.00774795, "internal_weight": 13270.1, "internal_count": 99485, "left_child": {"split_index": 25, "split_feature": 3, "split_gain": 17.01810073852539, "threshold": 12.486760187194067, "decision_type": "<=", "default_left": true, "missing_type": "None", "internal_value": -0.00914253, "internal_weight": 9638.92, "internal_count": 74562, "left_child": {"leaf_index": 2, "leaf_value": -0.009973912562520556, "leaf_weight": 8333.877192588989, "leaf_count": 64460}, "right_child": {"leaf_index": 26, "leaf_value": -0.003833418647150316, "leaf_weight": 1305.042227708036, "leaf_count": 10102}}, "right_child": {"split_index": 24, "split_feature": 3, "split_gain": 18.389999389648438, "threshold": 0.6579029847964571, "decision_type": "<=", "default_left": true, "missing_type": "None", "internal_value": -0.00404605, "internal_weight": 3631.17, "internal_count": 24923, "left_child": {"leaf_index": 19, "leaf_value": 0.0008487948018563648, "leaf_weight": 1255.4367470287252, "leaf_count": 7718}, "right_child": {"leaf_index": 25, "leaf_value": -0.006632695436254262, "leaf_weight": 2375.734966770746, "leaf_count": 17205}}}, "right_child": {"split_index": 19, "split_feature": 1, "split_gain": 26.662099838256836, "threshold": 9.582260993134618, "decision_type": "<=", "default_left": true, "missing_type": "None", "internal_value": 0.00100459, "internal_weight": 2082.41, "internal_count": 16579, "left_child": {"leaf_index": 10, "leaf_value": 0.008895211051168514, "leaf_weight": 707.0620324828196, "leaf_count": 5560}, "right_child": {"split_index": 23, "split_feature": 3, "split_gain": 18.414499282836914, "threshold": 25.245736609931765, "decision_type": "<=", "default_left": true, "missing_type": "None", "internal_value": -0.00305195, "internal_weight": 1375.35, "internal_count": 11019, "left_child": {"split_index": 28, "split_feature": 4, "split_gain": 12.33899974822998, "threshold": 0.07837633159226183, "decision_type": "<=", "default_left": true, "missing_type": "None", "internal_value": -0.00459561, "internal_weight": 1283.95, "internal_count": 10283, "left_child": {"leaf_index": 20, "leaf_value": -0.013344598155018495, "leaf_weight": 306.7257162332535, "leaf_count": 2513}, "right_child": {"leaf_index": 29, "leaf_value": -0.0018495195261851944, "leaf_weight": 977.2206738945097, "leaf_count": 7770}}, "right_child": {"leaf_index": 24, "leaf_value": 0.018631889977297904, "leaf_weight": 91.40328743075952, "leaf_count": 736}}}}, "right_child": {"leaf_index": 4, "leaf_value": 0.007793960329811183, "leaf_weight": 2046.5864264165284, "leaf_count": 11455}}}, "right_child": {"split_index": 2, "split_feature": 1, "split_gain": 369.10400390625, "threshold": 17.206772121399165, "decision_type": "<=", "default_left": true, "missing_type": "None", "internal_value": 0.0149936, "internal_weight": 18217.4, "internal_count": 105404, "left_child": {"split_index": 11, "split_feature": 3, "split_gain": 40.67179870605469, "threshold": 14.809479419304314, "decision_type": "<=", "default_left": true, "missing_type": "None", "internal_value": 0.00774018, "internal_weight": 8935.85, "internal_count": 55820, "left_child": {"split_index": 12, "split_feature": 4, "split_gain": 158.38400268554688, "threshold": 0.15744725689077216, "decision_type": "<=", "default_left": true, "missing_type": "None", "internal_value": 0.0106095, "internal_weight": 5184.65, "internal_count": 30167, "left_child": {"leaf_index": 1, "leaf_value": 0.0032477848712367734, "leaf_weight": 3032.6451242160983, "leaf_count": 19583}, "right_child": {"split_index": 21, "split_feature": 1, "split_gain": 18.7992000579834, "threshold": 15.34648024274947, "decision_type": "<=", "default_left": true, "missing_type": "None", "internal_value": 0.0209837, "internal_weight": 2152.01, "internal_count": 10584, "left_child": {"split_index": 22, "split_feature": 4, "split_gain": 24.538400650024414, "threshold": 0.2714572927579045, "decision_type": "<=", "default_left": true, "missing_type": "None", "internal_value": 0.0173151, "internal_weight": 1331.49, "internal_count": 6632, "left_child": {"leaf_index": 13, "leaf_value": 0.014913674037112966, "leaf_weight": 1183.365632233501, "leaf_count": 5993}, "right_child": {"leaf_index": 23, "leaf_value": 0.03650051285753277, "leaf_weight": 148.12448234530166, "leaf_count": 639}}, "right_child": {"leaf_index": 22, "leaf_value": 0.026936784188056662, "leaf_weight": 820.5155395339243, "leaf_count": 3952}}}, "right_child": {"split_index": 13, "split_feature": 4, "split_gain": 39.105098724365234, "threshold": 0.23696165526972315, "decision_type": "<=", "default_left": true, "missing_type": "None", "internal_value": 0.00377445, "internal_weight": 3751.2, "internal_count": 25653, "left_child": {"split_index": 26, "split_feature": 3, "split_gain": 15.163700103759766, "threshold": 30.077912043811207, "decision_type": "<=", "default_left": true, "missing_type": "None", "internal_value": 0.00242873, "internal_weight": 3507.48, "internal_count": 24514, "left_child": {"split_index": 27, "split_feature": 4, "split_gain": 12.464500427246094, "threshold": 0.07184312400201982, "decision_type": "<=", "default_left": true, "missing_type": "None", "internal_value": 0.00178555, "internal_weight": 3378.18, "internal_count": 23652, "left_child": {"leaf_index": 12, "leaf_value": -0.010263306402221001, "leaf_weight": 201.8221503579989, "leaf_count": 1623}, "right_child": {"leaf_index": 28, "leaf_value": 0.0025511189593342173, "leaf_weight": 3176.35575490084, "leaf_count": 22029}}, "right_child": {"leaf_index": 27, "leaf_value": 0.019232731832521416, "leaf_weight": 129.30254193907604, "leaf_count": 862}}, "right_child": {"leaf_index": 14, "leaf_value": 0.023140928073940057, "leaf_weight": 243.72315962752327, "leaf_count": 1139}}}, "right_child": {"split_index": 5, "split_feature": 1, "split_gain": 135.9409942626953, "threshold": 27.853680785235493, "decision_type": "<=", "default_left": true, "missing_type": "None", "internal_value": 0.0219769, "internal_weight": 9281.57, "internal_count": 49584, "left_child": {"split_index": 6, "split_feature": 4, "split_gain": 342.90899658203125, "threshold": 0.16821937102340426, "decision_type": "<=", "default_left": true, "missing_type": "None", "internal_value": 0.0193651, "internal_weight": 7823.99, "internal_count": 42950, "left_child": {"split_index": 15, "split_feature": 3, "split_gain": 32.99810028076172, "threshold": 18.043465895090026, "decision_type": "<=", "default_left": true, "missing_type": "None", "internal_value": 0.00837878, "internal_weight": 3722.92, "internal_count": 23777, "left_child": {"leaf_index": 3, "leaf_value": 0.012624012835663466, "leaf_weight": 2053.104029091308, "leaf_count": 12157}, "right_child": {"leaf_index": 16, "leaf_value": 0.003159102946517964, "leaf_weight": 1669.8195514308754, "leaf_count": 11620}}, "right_child": {"split_index": 8, "split_feature": 4, "split_gain": 94.61389923095703, "threshold": 0.23127974511508456, "decision_type": "<=", "default_left": true, "missing_type": "None", "internal_value": 0.0293384, "internal_weight": 4101.06, "internal_count": 19173, "left_child": {"split_index": 14, "split_feature": 3, "split_gain": 35.02239990234375, "threshold": 18.413504619789407, "decision_type": "<=", "default_left": true, "missing_type": "None", "internal_value": 0.0242445, "internal_weight": 2828.55, "internal_count": 14194, "left_child": {"split_index": 20, "split_feature": 3, "split_gain": 19.290700912475586, "threshold": 1.1192107249790857, "decision_type": "<=", "default_left": true, "missing_type": "None", "internal_value": 0.0286981, "internal_weight": 1723.91, "internal_count": 8108, "left_child": {"leaf_index": 7, "leaf_value": 0.023421880702234447, "leaf_weight": 864.0636211507954, "leaf_count": 4049}, "right_child": {"leaf_index": 21, "leaf_value": 0.03400021975498867, "leaf_weight": 859.8505945389625, "leaf_count": 4059}}, "right_child": {"leaf_index": 15, "leaf_value": 0.01729410638584222, "leaf_weight": 1104.6334441797808, "leaf_count": 6086}}, "right_child": {"split_index": 10, "split_feature": 3, "split_gain": 44.660099029541016, "threshold": 14.177854556296433, "decision_type": "<=", "default_left": true, "missing_type": "None", "internal_value": 0.0406611, "internal_weight": 1272.51, "internal_count": 4979, "left_child": {"leaf_index": 9, "leaf_value": 0.04912706588559426, "leaf_weight": 700.3848455701955, "leaf_count": 2520}, "right_child": {"leaf_index": 11, "leaf_value": 0.030297265753926668, "leaf_weight": 572.1296814763919, "leaf_count": 2459}}}}, "right_child": {"split_index": 7, "split_feature": 4, "split_gain": 166.26600646972656, "threshold": 0.20941382595164948, "decision_type": "<=", "default_left": true, "missing_type": "None", "internal_value": 0.0359963, "internal_weight": 1457.58, "internal_count": 6634, "left_child": {"split_index": 29, "split_feature": 4, "split_gain": 11.847900390625, "threshold": 0.13104833216757653, "decision_type": "<=", "default_left": true, "missing_type": "None", "internal_value": 0.0211265, "internal_weight": 821.006, "internal_count": 4238, "left_child": {"leaf_index": 6, "leaf_value": 0.004348488878351643, "leaf_weight": 93.26800070609897, "leaf_count": 642}, "right_child": {"leaf_index": 30, "leaf_value": 0.02327674556737766, "leaf_weight": 727.7380996940192, "leaf_count": 3596}}, "right_child": {"leaf_index": 8, "leaf_value": 0.05517436633112616, "leaf_weight": 636.5758991183247, "leaf_count": 2396}}}}}}, {"tree_index": 5, "num_leaves": 31, "num_cat": 0, "shrinkage": 0.05, "tree_structure": {"split_index": 0, "split_feature": 0, "split_gain": 7306.93017578125, "threshold": 0.5028085281911964, "decision_type": "<=", "default_left": true, "missing_type": "None", "internal_value": 0, "internal_weight": 0, "internal_count": 335674, "left_child": {"split_index": 2, "split_feature": 0, "split_gain": 1037.4000244140625, "threshold": 0.4652397189645423, "decision_type": "<=", "default_left": true, "missing_type": "None", "internal_value": -0.0202675, "internal_weight": 22403.1, "internal_count": 196912, "left_child": {"split_index": 6, "split_feature": 0, "split_gain": 124.15499877929688, "threshold": 0.44898112525198036, "decision_type": "<=", "default_left": true, "missing_type": "None", "internal_value": -0.032546, "internal_weight": 9730.71, "internal_count": 96364, "left_child": {"split_index": 12, "split_feature": 0, "split_gain": 27.333599090576172, "threshold": 0.4267882877187494, "decision_type": "<=", "default_left": true, "missing_type": "None", "internal_value": -0.0373922, "internal_weight": 5604.34, "internal_count": 58120, "left_child": {"leaf_index": 0, "leaf_value": -0.042213280313033744, "leaf_weight": 1928.3857965196948, "leaf_count": 21245}, "right_child": {"split_index": 27, "split_feature": 3, "split_gain": 14.07129955291748, "threshold": 12.733575242024026, "decision_type": "<=", "default_left": true, "missing_type": "None", "internal_value": -0.0348631, "internal_weight": 3675.96, "internal_count": 36875, "left_child": {"split_index": 28, "split_feature": 4, "split_gain": 19.883100509643555, "threshold": 0.06902391630785991, "decision_type": "<=", "default_left": true, "missing_type": "None", "internal_value": -0.0365683, "internal_weight": 2819.32, "internal_count": 29463, "left_child": {"leaf_index": 13, "leaf_value": -0.03415650452468138, "leaf_weight": 2119.9213290045154, "leaf_count": 22804}, "right_child": {"leaf_index": 29, "leaf_value": -0.04387867636055874, "leaf_weight": 699.3951414223993, "leaf_count": 6659}}, "right_child": {"leaf_index": 28, "leaf_value": -0.029251004119463908, "leaf_weight": 856.6398670021445, "leaf_count": 7412}}}, "right_child": {"split_index": 17, "split_feature": 3, "split_gain": 19.740100860595703, "threshold": 20.91872167145138, "decision_type": "<=", "default_left": true, "missing_type": "None", "internal_value": -0.025964, "internal_weight": 4126.37, "internal_count": 38244, "left_child": {"leaf_index": 7, "leaf_value": -0.027074768378532083, "leaf_weight": 3740.500250948826, "leaf_count": 35237}, "right_child": {"leaf_index": 18, "leaf_value": -0.01519680905691364, "leaf_weight": 385.8722635372542, "leaf_count": 3007}}}, "right_child": {"split_index": 5, "split_feature": 0, "split_gain": 144.05499267578125, "threshold": 0.48258310486452094, "decision_type": "<=", "default_left": true, "missing_type": "None", "internal_value": -0.0108392, "internal_weight": 12672.4, "internal_count": 100548, "left_child": {"leaf_index": 3, "leaf_value": -0.0169271124806096, "leaf_weight": 5499.812943764438, "leaf_count": 46108}, "right_child": {"split_index": 10, "split_feature": 4, "split_gain": 41.284400939941406, "threshold": 0.28096913653593986, "decision_type": "<=", "default_left": true, "missing_type": "None", "internal_value": -0.00617109, "internal_weight": 7172.57, "internal_count": 54440, "left_child": {"split_index": 16, "split_feature": 0, "split_gain": 21.0674991607666, "threshold": 0.4893884375231054, "decision_type": "<=", "default_left": true, "missing_type": "None", "internal_value": -0.00658598, "internal_weight": 7087.79, "internal_count": 54029, "left_child": {"split_index": 24, "split_feature": 4, "split_gain": 15.006699562072754, "threshold": 0.13031176514275591, "decision_type": "<=", "default_left": true, "missing_type": "None", "internal_value": -0.0105701, "internal_weight": 2260.03, "internal_count": 18495, "left_child": {"split_index": 29, "split_feature": 3, "split_gain": 13.2746000289917, "threshold": 36.287495632717636, "decision_type": "<=", "default_left": true, "missing_type": "None", "internal_value": -0.0131279, "internal_weight": 1621.13, "internal_count": 14466, "left_child": {"leaf_index": 6, "leaf_value": -0.013467817027107332, "leaf_weight": 1612.0332050999277, "leaf_count": 14420}, "right_child": {"leaf_index": 30, "leaf_value": 0.04709713709241707, "leaf_weight": 9.09833109565079, "leaf_count": 46}}, "right_child": {"leaf_index": 25, "leaf_value": -0.004080054462119253, "leaf_weight": 638.8952573083807, "leaf_count": 4029}}, "right_child": {"split_index": 22, "split_feature": 4, "split_gain": 17.146400451660156, "threshold": 0.05372297846548236, "decision_type": "<=", "default_left": true, "missing_type": "None", "internal_value": -0.00472086, "internal_weight": 4827.76, "internal_count": 35534, "left_child": {"leaf_index": 17, "leaf_value": 0.0002773817983493922, "leaf_weight": 1265.922278414364, "leaf_count": 10467}, "right_child": {"split_index": 23, "split_feature": 4, "split_gain": 15.232199668884277, "threshold": 0.1707241414926036, "decision_type": "<=", "default_left": true, "missing_type": "None", "internal_value": -0.0064973, "internal_weight": 3561.84, "internal_count": 25067, "left_child": {"leaf_index": 23, "leaf_value": -0.008166180362002593, "leaf_weight": 2825.7185143881943, "leaf_count": 21026}, "right_child": {"leaf_index": 24, "leaf_value": -9.103206135284554e-05, "leaf_weight": 736.1186469987733, "leaf_count": 4041}}}}, "right_child": {"leaf_index": 11, "leaf_value": 0.028512115278634637, "leaf_weight": 84.78582788910717, "leaf_count": 411}}}}, "right_child": {"split_index": 1, "split_feature": 0, "split_gain": 1179.260009765625, "threshold": 0.5414701677213062, "decision_type": "<=", "default_left": true, "missing_type": "None", "internal_value": 0.0199641, "internal_weight": 22743.6, "internal_count": 138762, "left_child": {"split_index": 4, "split_feature": 0, "split_gain": 160.52000427246094, "threshold": 0.5244841920312601, "decision_type": "<=", "default_left": true, "missing_type": "None", "internal_value": 0.00989568, "internal_weight": 12762.7, "internal_count": 82996, "left_child": {"split_index": 8, "split_feature": 4, "split_gain": 71.36119842529297, "threshold": 0.1597355711448887, "decision_type": "<=", "default_left": true, "missing_type": "None", "internal_value": 0.0052793, "internal_weight": 7606.98, "internal_count": 51261, "left_child": {"split_index": 20, "split_feature": 0, "split_gain": 18.50189971923828, "threshold": 0.5090763287726302, "decision_type": "<=", "default_left": true, "missing_type": "None", "internal_value": 0.00245, "internal_weight": 5671.24, "internal_count": 40940, "left_child": {"leaf_index": 1, "leaf_value": -0.0019058504023870975, "leaf_weight": 1704.9604585504858, "leaf_count": 12860}, "right_child": {"split_index": 21, "split_feature": 4, "split_gain": 23.59830093383789, "threshold": 0.06283761203447415, "decision_type": "<=", "default_left": true, "missing_type": "None", "internal_value": 0.00432243, "internal_weight": 3966.28, "internal_count": 28080, "left_child": {"leaf_index": 21, "leaf_value": 0.010568429455394613, "leaf_weight": 1094.8064539718325, "leaf_count": 8904}, "right_child": {"leaf_index": 22, "leaf_value": 0.001941018136902913, "leaf_weight": 2871.477748964913, "leaf_count": 19176}}}, "right_child": {"split_index": 15, "split_feature": 4, "split_gain": 23.116300582885742, "threshold": 0.24322000157922327, "decision_type": "<=", "default_left": true, "missing_type": "None", "internal_value": 0.0135685, "internal_weight": 1935.74, "internal_count": 10321, "left_child": {"leaf_index": 9, "leaf_value": 0.011077886764501175, "leaf_weight": 1602.7311783879995, "leaf_count": 8854}, "right_child": {"leaf_index": 16, "leaf_value": 0.025555505059759703, "leaf_weight": 333.00454328698106, "leaf_count": 1467}}}, "right_child": {"split_index": 14, "split_feature": 4, "split_gain": 23.96030044555664, "threshold": 0.21685209529907815, "decision_type": "<=", "default_left": true, "missing_type": "None", "internal_value": 0.0167069, "internal_weight": 5155.69, "internal_count": 31735, "left_child": {"split_index": 25, "split_feature": 0, "split_gain": 14.797300338745117, "threshold": 0.5323934077284987, "decision_type": "<=", "default_left": true, "missing_type": "None", "internal_value": 0.0156115, "internal_weight": 4673.03, "internal_count": 29516, "left_child": {"leaf_index": 5, "leaf_value": 0.012737436144097137, "leaf_weight": 2286.8498086246545, "leaf_count": 14807}, "right_child": {"split_index": 26, "split_feature": 4, "split_gain": 14.700699806213379, "threshold": 0.02261437816685642, "decision_type": "<=", "default_left": true, "missing_type": "None", "internal_value": 0.0183659, "internal_weight": 2386.18, "internal_count": 14709, "left_child": {"leaf_index": 26, "leaf_value": 0.03670434452582232, "leaf_weight": 104.49734737270046, "leaf_count": 682}, "right_child": {"leaf_index": 27, "leaf_value": 0.017526034779709248, "leaf_weight": 2281.6825768284034, "leaf_count": 14027}}}, "right_child": {"leaf_index": 15, "leaf_value": 0.02731296961567687, "leaf_weight": 482.65639024972916, "leaf_count": 2219}}}, "right_child": {"split_index": 3, "split_feature": 0, "split_gain": 258.6369934082031, "threshold": 0.5760064643611056, "decision_type": "<=", "default_left": true, "missing_type": "None", "internal_value": 0.0328386, "internal_weight": 9980.9, "internal_count": 55766, "left_child": {"split_index": 7, "split_feature": 4, "split_gain": 94.07769775390625, "threshold": 0.1563479950526053, "decision_type": "<=", "default_left": true, "missing_type": "None", "internal_value": 0.0269911, "internal_weight": 6532.76, "internal_count": 38497, "left_child": {"split_index": 18, "split_feature": 0, "split_gain": 19.10740089416504, "threshold": 0.5548018574117787, "decision_type": "<=", "default_left": true, "missing_type": "None", "internal_value": 0.0216765, "internal_weight": 3660.8, "internal_count": 24305, "left_child": {"leaf_index": 2, "leaf_value": 0.018136208781355235, "leaf_weight": 1867.2297954573296, "leaf_count": 12500}, "right_child": {"leaf_index": 19, "leaf_value": 0.02536225305298156, "leaf_weight": 1793.5742988504935, "leaf_count": 11805}}, "right_child": {"leaf_index": 8, "leaf_value": 0.03376538390325106, "leaf_weight": 2871.950970758684, "leaf_count": 14192}}, "right_child": {"split_index": 9, "split_feature": 4, "split_gain": 52.930599212646484, "threshold": 0.21685209529907815, "decision_type": "<=", "default_left": true, "missing_type": "None", "internal_value": 0.0439173, "internal_weight": 3448.14, "internal_count": 17269, "left_child": {"split_index": 11, "split_feature": 3, "split_gain": 30.18199920654297, "threshold": 3.7760327842856447, "decision_type": "<=", "default_left": true, "missing_type": "None", "internal_value": 0.0397992, "internal_weight": 2391.37, "internal_count": 13169, "left_child": {"leaf_index": 4, "leaf_value": 0.032539826013461434, "leaf_weight": 895.5997386929812, "leaf_count": 4380}, "right_child": {"leaf_index": 12, "leaf_value": 0.04414569436250467, "leaf_weight": 1495.7751468319912, "leaf_count": 8789}}, "right_child": {"split_index": 13, "split_feature": 4, "split_gain": 27.25779914855957, "threshold": 0.34948568651536743, "decision_type": "<=", "default_left": true, "missing_type": "None", "internal_value": 0.0532361, "internal_weight": 1056.77, "internal_count": 4100, "left_child": {"split_index": 19, "split_feature": 0, "split_gain": 18.817899703979492, "threshold": 0.6287461358119684, "decision_type": "<=", "default_left": true, "missing_type": "None", "internal_value": 0.0557575, "internal_weight": 961.939, "internal_count": 3768, "left_child": {"leaf_index": 10, "leaf_value": 0.05045078959476541, "leaf_weight": 610.440553272143, "leaf_count": 2641}, "right_child": {"leaf_index": 20, "leaf_value": 0.06497342604965656, "leaf_weight": 351.4986713961698, "leaf_count": 1127}}, "right_child": {"leaf_index": 14, "leaf_value": 0.027660634602071257, "leaf_weight": 94.83077486325055, "leaf_count": 332}}}}}}}, {"tree_index": 6, "num_leaves": 31, "num_cat": 0, "shrinkage": 0.05, "tree_structure": {"split_index": 0, "split_feature": 2, "split_gain": 389.5719909667969, "threshold": 17.86435905976288, "decision_type": "<=", "default_left": true, "missing_type": "None", "internal_value": 0, "internal_weight": 0, "internal_count": 335674, "left_child": {"split_index": 1, "split_feature": 4, "split_gain": 1815.6300048828125, "threshold": 0.152889184623105, "decision_type": "<=", "default_left": true, "missing_type": "None", "internal_value": -0.00187386, "internal_weight": 37312.2, "internal_count": 296566, "left_child": {"split_index": 2, "split_feature": 4, "split_gain": 400.4129943847656, "threshold": 0.04811381540396671, "decision_type": "<=", "default_left": true, "missing_type": "None", "internal_value": -0.00815677, "internal_weight": 28170.9, "internal_count": 245575, "left_child": {"split_index": 5, "split_feature": 3, "split_gain": 114.8499984741211, "threshold": 10.018459614587988, "decision_type": "<=", "default_left": true, "missing_type": "None", "internal_value": -0.0162335, "internal_weight": 9934.09, "internal_count": 101252, "left_child": {"split_index": 17, "split_feature": 4, "split_gain": 14.717000007629395, "threshold": 0.03612377399301671, "decision_type": "<=", "default_left": true, "missing_type": "None", "internal_value": -0.0184637, "internal_weight": 8475.49, "internal_count": 87723, "left_child": {"leaf_index": 0, "leaf_value": -0.01953293735043952, "leaf_weight": 6708.795749743236, "leaf_count": 70014}, "right_child": {"leaf_index": 18, "leaf_value": -0.014403619427236248, "leaf_weight": 1766.691643965809, "leaf_count": 17709}}, "right_child": {"split_index": 10, "split_feature": 3, "split_gain": 22.47480010986328, "threshold": 22.64028482131778, "decision_type": "<=", "default_left": true, "missing_type": "None", "internal_value": -0.00327406, "internal_weight": 1458.61, "internal_count": 13529, "left_child": {"leaf_index": 6, "leaf_value": -0.005191339886722429, "leaf_weight": 1331.5395984444767, "leaf_count": 12702}, "right_child": {"leaf_index": 11, "leaf_value": 0.016817448672385438, "leaf_weight": 127.06562784872949, "leaf_count": 827}}}, "right_child": {"split_index": 6, "split_feature": 4, "split_gain": 72.27010345458984, "threshold": 0.09726629715880124, "decision_type": "<=", "default_left": true, "missing_type": "None", "internal_value": -0.00375718, "internal_weight": 18236.9, "internal_count": 144323, "left_child": {"split_index": 9, "split_feature": 3, "split_gain": 45.036399841308594, "threshold": 12.486760187194067, "decision_type": "<=", "default_left": true, "missing_type": "None", "internal_value": -0.00678688, "internal_weight": 9466.24, "internal_count": 78498, "left_child": {"split_index": 29, "split_feature": 3, "split_gain": 6.975160121917725, "threshold": 10.323159672737232, "decision_type": "<=", "default_left": true, "missing_type": "None", "internal_value": -0.00885289, "internal_weight": 6966.26, "internal_count": 58283, "left_child": {"leaf_index": 3, "leaf_value": -0.008261685177327942, "leaf_weight": 6112.729944316263, "leaf_count": 50197}, "right_child": {"leaf_index": 30, "leaf_value": -0.01308694615831587, "leaf_weight": 853.5254367426969, "leaf_count": 8086}}, "right_child": {"split_index": 11, "split_feature": 3, "split_gain": 19.189199447631836, "threshold": 34.56954519040685, "decision_type": "<=", "default_left": true, "missing_type": "None", "internal_value": -0.00102992, "internal_weight": 2499.99, "internal_count": 20215, "left_child": {"leaf_index": 10, "leaf_value": -0.0016260021290853055, "leaf_weight": 2454.5394582919544, "leaf_count": 19996}, "right_child": {"leaf_index": 12, "leaf_value": 0.031162157130771247, "leaf_weight": 45.44964002724737, "leaf_count": 219}}}, "right_child": {"split_index": 12, "split_feature": 4, "split_gain": 18.59630012512207, "threshold": 0.12734854630304313, "decision_type": "<=", "default_left": true, "missing_type": "None", "internal_value": -0.000487172, "internal_weight": 8770.61, "internal_count": 65825, "left_child": {"split_index": 28, "split_feature": 3, "split_gain": 6.986259937286377, "threshold": 23.079413600558045, "decision_type": "<=", "default_left": true, "missing_type": "None", "internal_value": -0.00240164, "internal_weight": 5185.27, "internal_count": 39766, "left_child": {"leaf_index": 7, "leaf_value": -0.002854987636789132, "leaf_weight": 4887.077576681855, "leaf_count": 37420}, "right_child": {"leaf_index": 29, "leaf_value": 0.005028239097891268, "leaf_weight": 298.1938887834549, "leaf_count": 2346}}, "right_child": {"split_index": 21, "split_feature": 3, "split_gain": 10.90369987487793, "threshold": 21.444851938190997, "decision_type": "<=", "default_left": true, "missing_type": "None", "internal_value": 0.00228162, "internal_weight": 3585.34, "internal_count": 26059, "left_child": {"split_index": 23, "split_feature": 3, "split_gain": 9.9898099899292, "threshold": 0.7021958252801993, "decision_type": "<=", "default_left": true, "missing_type": "None", "internal_value": 0.00136685, "internal_weight": 3229.86, "internal_count": 23376, "left_child": {"split_index": 24, "split_feature": 2, "split_gain": 9.055899620056152, "threshold": 5.365032801047863, "decision_type": "<=", "default_left": true, "missing_type": "None", "internal_value": 0.00525528, "internal_weight": 1092.87, "internal_count": 7100, "left_child": {"leaf_index": 13, "leaf_value": 0.0032808865427670373, "leaf_weight": 919.7874253154732, "leaf_count": 5969}, "right_child": {"leaf_index": 25, "leaf_value": 0.015747560428987145, "leaf_weight": 173.08172194520012, "leaf_count": 1131}}, "right_child": {"leaf_index": 24, "leaf_value": -0.0006217125174345114, "leaf_weight": 2136.9888794084545, "leaf_count": 16276}}, "right_child": {"split_index": 22, "split_feature": 4, "split_gain": 10.295299530029297, "threshold": 0.1421386223632696, "decision_type": "<=", "default_left": true, "missing_type": "None", "internal_value": 0.0105931, "internal_weight": 355.48, "internal_count": 2683, "left_child": {"split_index": 27, "split_feature": 2, "split_gain": 7.264520168304443, "threshold": 13.919892549760519, "decision_type": "<=", "default_left": true, "missing_type": "None", "internal_value": 0.00328561, "internal_weight": 204.592, "internal_count": 1651, "left_child": {"leaf_index": 22, "leaf_value": 0.006464458184083613, "leaf_weight": 183.68251732876524, "leaf_count": 1466}, "right_child": {"leaf_index": 28, "leaf_value": -0.024639071289665276, "leaf_weight": 20.909769530873746, "leaf_count": 185}}, "right_child": {"leaf_index": 23, "leaf_value": 0.020501368234550923, "leaf_weight": 150.88804449373856, "leaf_count": 1032}}}}}}, "right_child": {"split_index": 3, "split_feature": 4, "split_gain": 256.25, "threshold": 0.21956622281897278, "decision_type": "<=", "default_left": true, "missing_type": "None", "internal_value": 0.0174884, "internal_weight": 9141.27, "internal_count": 50991, "left_child": {"leaf_index": 2, "leaf_value": 0.012355631238174425, "leaf_weight": 6643.725246120477, "leaf_count": 39346}, "right_child": {"split_index": 14, "split_feature": 4, "split_gain": 16.19219970703125, "threshold": 0.25645071041262646, "decision_type": "<=", "default_left": true, "missing_type": "None", "internal_value": 0.031142, "internal_weight": 2497.55, "internal_count": 11645, "left_child": {"split_index": 15, "split_feature": 3, "split_gain": 20.286699295043945, "threshold": 32.29723687867937, "decision_type": "<=", "default_left": true, "missing_type": "None", "internal_value": 0.0267067, "internal_weight": 1128.22, "internal_count": 5613, "left_child": {"split_index": 25, "split_feature": 3, "split_gain": 7.578129768371582, "threshold": 9.868688757512407, "decision_type": "<=", "default_left": true, "missing_type": "None", "internal_value": 0.0251549, "internal_weight": 1070.85, "internal_count": 5377, "left_child": {"leaf_index": 4, "leaf_value": 0.029123678486148375, "leaf_weight": 566.4927481128834, "leaf_count": 2665}, "right_child": {"split_index": 26, "split_feature": 2, "split_gain": 15.553199768066406, "threshold": 9.249478145968416, "decision_type": "<=", "default_left": true, "missing_type": "None", "internal_value": 0.0206972, "internal_weight": 504.361, "internal_count": 2712, "left_child": {"leaf_index": 26, "leaf_value": 0.026664952205522792, "leaf_weight": 344.9882385954261, "leaf_count": 1805}, "right_child": {"leaf_index": 27, "leaf_value": 0.007778889274799966, "leaf_weight": 159.37254380621016, "leaf_count": 907}}}, "right_child": {"leaf_index": 16, "leaf_value": 0.055674994419528806, "leaf_weight": 57.36430936679244, "leaf_count": 236}}, "right_child": {"split_index": 18, "split_feature": 2, "split_gain": 11.337800025939941, "threshold": 12.269052619129733, "decision_type": "<=", "default_left": true, "missing_type": "None", "internal_value": 0.0347963, "internal_weight": 1369.33, "internal_count": 6032, "left_child": {"leaf_index": 15, "leaf_value": 0.036532488305041216, "leaf_weight": 1195.2710882825777, "leaf_count": 5166}, "right_child": {"split_index": 19, "split_feature": 3, "split_gain": 13.463000297546387, "threshold": 9.060112068764779, "decision_type": "<=", "default_left": true, "missing_type": "None", "internal_value": 0.0228738, "internal_weight": 174.057, "internal_count": 866, "left_child": {"leaf_index": 19, "leaf_value": 0.043694921681376425, "leaf_weight": 53.689560944680125, "leaf_count": 272}, "right_child": {"leaf_index": 20, "leaf_value": 0.013586558805277857, "leaf_weight": 120.3670173920691, "leaf_count": 594}}}}}}, "right_child": {"split_index": 4, "split_feature": 4, "split_gain": 135.67999267578125, "threshold": 0.1933311135277371, "decision_type": "<=", "default_left": true, "missing_type": "None", "internal_value": 0.0120558, "internal_weight": 5799.55, "internal_count": 39108, "left_child": {"split_index": 7, "split_feature": 3, "split_gain": 50.63909912109375, "threshold": 11.396049785999983, "decision_type": "<=", "default_left": true, "missing_type": "None", "internal_value": 0.00773553, "internal_weight": 4396.54, "internal_count": 31755, "left_child": {"leaf_index": 1, "leaf_value": 0.016422717908453816, "leaf_weight": 1214.2267396722455, "leaf_count": 7219}, "right_child": {"split_index": 16, "split_feature": 4, "split_gain": 15.748200416564941, "threshold": 0.1597355711448887, "decision_type": "<=", "default_left": true, "missing_type": "None", "internal_value": 0.0044209, "internal_weight": 3182.31, "internal_count": 24536, "left_child": {"split_index": 20, "split_feature": 3, "split_gain": 10.983599662780762, "threshold": 30.716847290685642, "decision_type": "<=", "default_left": true, "missing_type": "None", "internal_value": 0.00237348, "internal_weight": 2376.93, "internal_count": 19553, "left_child": {"leaf_index": 8, "leaf_value": 0.00120046657081608, "leaf_weight": 2123.953433349263, "leaf_count": 17625}, "right_child": {"leaf_index": 21, "leaf_value": 0.012221842525625682, "leaf_weight": 252.97964471322484, "leaf_count": 1928}}, "right_child": {"leaf_index": 17, "leaf_value": 0.010463477547183325, "leaf_weight": 805.3777134608245, "leaf_count": 4983}}}, "right_child": {"split_index": 8, "split_feature": 3, "split_gain": 47.0452995300293, "threshold": 14.177854556296433, "decision_type": "<=", "default_left": true, "missing_type": "None", "internal_value": 0.0255938, "internal_weight": 1403.01, "internal_count": 7353, "left_child": {"leaf_index": 5, "leaf_value": 0.037651646805215204, "leaf_weight": 513.1011678061914, "leaf_count": 2415}, "right_child": {"split_index": 13, "split_feature": 2, "split_gain": 16.732999801635742, "threshold": 32.865706313160075, "decision_type": "<=", "default_left": true, "missing_type": "None", "internal_value": 0.0186416, "internal_weight": 889.907, "internal_count": 4938, "left_child": {"leaf_index": 9, "leaf_value": 0.015203580323697364, "leaf_weight": 711.1056831756141, "leaf_count": 3989}, "right_child": {"leaf_index": 14, "leaf_value": 0.032314593401696366, "leaf_weight": 178.8017986966297, "leaf_count": 949}}}}}}, {"tree_index": 7, "num_leaves": 31, "num_cat": 0, "shrinkage": 0.05, "tree_structure": {"split_index": 0, "split_feature": 0, "split_gain": 6033.22998046875, "threshold": 0.5028085281911964, "decision_type": "<=", "default_left": true, "missing_type": "None", "internal_value": 0, "internal_weight": 0, "internal_count": 335674, "left_child": {"split_index": 2, "split_feature": 0, "split_gain": 867.72998046875, "threshold": 0.46573987856931753, "decision_type": "<=", "default_left": true, "missing_type": "None", "internal_value": -0.0191368, "internal_weight": 20854.8, "internal_count": 196912, "left_child": {"split_index": 6, "split_feature": 0, "split_gain": 104.64800262451172, "threshold": 0.45024041325715586, "decision_type": "<=", "default_left": true, "missing_type": "None", "internal_value": -0.0307076, "internal_weight": 9118.46, "internal_count": 97701, "left_child": {"split_index": 14, "split_feature": 0, "split_gain": 20.83489990234375, "threshold": 0.4267882877187494, "decision_type": "<=", "default_left": true, "missing_type": "None", "internal_value": -0.0351544, "internal_weight": 5398.12, "internal_count": 60759, "left_child": {"split_index": 15, "split_feature": 4, "split_gain": 23.37849998474121, "threshold": 0.04932392756630579, "decision_type": "<=", "default_left": true, "missing_type": "None", "internal_value": -0.0395813, "internal_weight": 1780.96, "internal_count": 21245, "left_child": {"leaf_index": 0, "leaf_value": -0.03628450016307981, "leaf_weight": 1337.8667728268774, "leaf_count": 16106}, "right_child": {"leaf_index": 16, "leaf_value": -0.04953556231759537, "leaf_weight": 443.09545579133555, "leaf_count": 5139}}, "right_child": {"split_index": 16, "split_feature": 2, "split_gain": 19.821199417114258, "threshold": 23.90963063122976, "decision_type": "<=", "default_left": true, "missing_type": "None", "internal_value": -0.0329747, "internal_weight": 3617.16, "internal_count": 39514, "left_child": {"leaf_index": 15, "leaf_value": -0.03372941029968734, "leaf_weight": 3472.782744629134, "leaf_count": 38323}, "right_child": {"split_index": 28, "split_feature": 4, "split_gain": 11.503199577331543, "threshold": 0.04234041981896421, "decision_type": "<=", "default_left": true, "missing_type": "None", "internal_value": -0.0148218, "internal_weight": 144.373, "internal_count": 1191, "left_child": {"leaf_index": 17, "leaf_value": 0.023282095481331946, "leaf_weight": 17.417539719492197, "leaf_count": 126}, "right_child": {"leaf_index": 29, "leaf_value": -0.02004943511491134, "leaf_weight": 126.95527386758476, "leaf_count": 1065}}}}, "right_child": {"split_index": 23, "split_feature": 2, "split_gain": 12.79319953918457, "threshold": 21.794681651449704, "decision_type": "<=", "default_left": true, "missing_type": "None", "internal_value": -0.0242555, "internal_weight": 3720.35, "internal_count": 36942, "left_child": {"leaf_index": 7, "leaf_value": -0.025035734827713593, "leaf_weight": 3474.291915938491, "leaf_count": 35034}, "right_child": {"leaf_index": 24, "leaf_value": -0.013237898009504223, "leaf_weight": 246.0538986166939, "leaf_count": 1908}}}, "right_child": {"split_index": 5, "split_feature": 0, "split_gain": 109.97000122070312, "threshold": 0.48258310486452094, "decision_type": "<=", "default_left": true, "missing_type": "None", "internal_value": -0.0101469, "internal_weight": 11736.4, "internal_count": 99211, "left_child": {"leaf_index": 3, "leaf_value": -0.015754652831699814, "leaf_weight": 5010.30048960651, "leaf_count": 44771}, "right_child": {"split_index": 10, "split_feature": 4, "split_gain": 34.680198669433594, "threshold": 0.2629983904674352, "decision_type": "<=", "default_left": true, "missing_type": "None", "internal_value": -0.00596966, "internal_weight": 6726.07, "internal_count": 54440, "left_child": {"split_index": 11, "split_feature": 2, "split_gain": 22.135799407958984, "threshold": 14.636847430059744, "decision_type": "<=", "default_left": true, "missing_type": "None", "internal_value": -0.00644479, "internal_weight": 6610.31, "internal_count": 53868, "left_child": {"split_index": 13, "split_feature": 0, "split_gain": 21.26729965209961, "threshold": 0.4893884375231054, "decision_type": "<=", "default_left": true, "missing_type": "None", "internal_value": -0.00778474, "internal_weight": 5442.96, "internal_count": 44896, "left_child": {"leaf_index": 6, "leaf_value": -0.012325318113386843, "leaf_weight": 1749.8157542270492, "leaf_count": 15524}, "right_child": {"leaf_index": 14, "leaf_value": -0.005633409661344402, "leaf_weight": 3693.1430094578536, "leaf_count": 29372}}, "right_child": {"split_index": 12, "split_feature": 4, "split_gain": 24.695100784301758, "threshold": 0.04811381540396671, "decision_type": "<=", "default_left": true, "missing_type": "None", "internal_value": -0.000197031, "internal_weight": 1167.35, "internal_count": 8972, "left_child": {"leaf_index": 12, "leaf_value": 0.03018450177975352, "leaf_weight": 63.26084264367819, "leaf_count": 567}, "right_child": {"leaf_index": 13, "leaf_value": -0.0019378002454504715, "leaf_weight": 1104.0871254358208, "leaf_count": 8405}}}, "right_child": {"leaf_index": 11, "leaf_value": 0.021160371050892326, "leaf_weight": 115.76608656113967, "leaf_count": 572}}}}, "right_child": {"split_index": 1, "split_feature": 0, "split_gain": 985.3270263671875, "threshold": 0.5526318669337652, "decision_type": "<=", "default_left": true, "missing_type": "None", "internal_value": 0.0186565, "internal_weight": 21391.7, "internal_count": 138762, "left_child": {"split_index": 3, "split_feature": 0, "split_gain": 228.6060028076172, "threshold": 0.5244841920312601, "decision_type": "<=", "default_left": true, "missing_type": "None", "internal_value": 0.011178, "internal_weight": 14398.6, "internal_count": 98996, "left_child": {"split_index": 7, "split_feature": 4, "split_gain": 49.40169906616211, "threshold": 0.17717648580358297, "decision_type": "<=", "default_left": true, "missing_type": "None", "internal_value": 0.00476602, "internal_weight": 7072.65, "internal_count": 51261, "left_child": {"split_index": 17, "split_feature": 0, "split_gain": 19.346900939941406, "threshold": 0.5079865129003667, "decision_type": "<=", "default_left": true, "missing_type": "None", "internal_value": 0.00276262, "internal_weight": 5750.85, "internal_count": 43982, "left_child": {"leaf_index": 1, "leaf_value": -0.0022560021791515196, "leaf_weight": 1439.6272012176923, "leaf_count": 11494}, "right_child": {"split_index": 18, "split_feature": 2, "split_gain": 28.53619956970215, "threshold": 13.676899606320125, "decision_type": "<=", "default_left": true, "missing_type": "None", "internal_value": 0.00443847, "internal_weight": 4311.22, "internal_count": 32488, "left_child": {"leaf_index": 18, "leaf_value": 0.00242433201790657, "leaf_weight": 3462.3945706788218, "leaf_count": 26334}, "right_child": {"leaf_index": 19, "leaf_value": 0.012654186246466288, "leaf_weight": 848.830199457705, "leaf_count": 6154}}}, "right_child": {"split_index": 24, "split_feature": 4, "split_gain": 12.221099853515625, "threshold": 0.2629983904674352, "decision_type": "<=", "default_left": true, "missing_type": "None", "internal_value": 0.0134823, "internal_weight": 1321.8, "internal_count": 7279, "left_child": {"split_index": 25, "split_feature": 2, "split_gain": 23.601299285888672, "threshold": 3.9364637682446646, "decision_type": "<=", "default_left": true, "missing_type": "None", "internal_value": 0.0114859, "internal_weight": 1127.4, "internal_count": 6342, "left_child": {"leaf_index": 8, "leaf_value": 0.018464396640196716, "leaf_weight": 583.9920728992438, "leaf_count": 3273}, "right_child": {"leaf_index": 26, "leaf_value": 0.003986360570321221, "leaf_weight": 543.4121816749685, "leaf_count": 3069}}, "right_child": {"leaf_index": 25, "leaf_value": 0.025060424223663905, "leaf_weight": 194.39641485060565, "leaf_count": 937}}}, "right_child": {"split_index": 9, "split_feature": 4, "split_gain": 43.168800354003906, "threshold": 0.16214914707271233, "decision_type": "<=", "default_left": true, "missing_type": "None", "internal_value": 0.0173683, "internal_weight": 7325.97, "internal_count": 47735, "left_child": {"split_index": 21, "split_feature": 0, "split_gain": 14.496700286865234, "threshold": 0.531712224445228, "decision_type": "<=", "default_left": true, "missing_type": "None", "internal_value": 0.0147326, "internal_weight": 4978.26, "internal_count": 34974, "left_child": {"split_index": 22, "split_feature": 2, "split_gain": 18.52560043334961, "threshold": 18.66061545350028, "decision_type": "<=", "default_left": true, "missing_type": "None", "internal_value": 0.0106833, "internal_weight": 1530.72, "internal_count": 11117, "left_child": {"leaf_index": 4, "leaf_value": 0.008696313982859107, "leaf_weight": 1354.022479468782, "leaf_count": 9939}, "right_child": {"leaf_index": 23, "leaf_value": 0.025910237054958027, "leaf_weight": 176.6934249533806, "leaf_count": 1178}}, "right_child": {"split_index": 26, "split_feature": 2, "split_gain": 11.957599639892578, "threshold": 17.310344705931637, "decision_type": "<=", "default_left": true, "missing_type": "None", "internal_value": 0.0165305, "internal_weight": 3447.55, "internal_count": 23857, "left_child": {"split_index": 27, "split_feature": 4, "split_gain": 17.000699996948242, "threshold": 0.015684494758669166, "decision_type": "<=", "default_left": true, "missing_type": "None", "internal_value": 0.0153703, "internal_weight": 2984.31, "internal_count": 20802, "left_child": {"leaf_index": 22, "leaf_value": 0.030636390922041276, "leaf_weight": 171.8664317287039, "leaf_count": 1167}, "right_child": {"leaf_index": 28, "leaf_value": 0.014437400319396677, "leaf_weight": 2812.443168295431, "leaf_count": 19635}}, "right_child": {"leaf_index": 27, "leaf_value": 0.024004540569026428, "leaf_weight": 463.23721072799526, "leaf_count": 3055}}}, "right_child": {"split_index": 19, "split_feature": 0, "split_gain": 18.58169937133789, "threshold": 0.5367740017418371, "decision_type": "<=", "default_left": true, "missing_type": "None", "internal_value": 0.0229574, "internal_weight": 2347.71, "internal_count": 12761, "left_child": {"leaf_index": 10, "leaf_value": 0.018044226321507435, "leaf_weight": 1057.546035387204, "leaf_count": 5753}, "right_child": {"leaf_index": 20, "leaf_value": 0.026984748534833087, "leaf_weight": 1290.1632423574338, "leaf_count": 7008}}}}, "right_child": {"split_index": 4, "split_feature": 0, "split_gain": 130.7469940185547, "threshold": 0.5781903087044573, "decision_type": "<=", "default_left": true, "missing_type": "None", "internal_value": 0.0340545, "internal_weight": 6993.08, "internal_count": 39766, "left_child": {"split_index": 29, "split_feature": 2, "split_gain": 11.22599983215332, "threshold": 19.81223042929705, "decision_type": "<=", "default_left": true, "missing_type": "None", "internal_value": 0.0279963, "internal_weight": 3917.28, "internal_count": 23840, "left_child": {"leaf_index": 2, "leaf_value": 0.02688355518525525, "leaf_weight": 3339.999408961856, "leaf_count": 20562}, "right_child": {"leaf_index": 30, "leaf_value": 0.03443461963442526, "leaf_weight": 577.2779443403706, "leaf_count": 3278}}, "right_child": {"split_index": 8, "split_feature": 4, "split_gain": 46.031898498535156, "threshold": 0.1933311135277371, "decision_type": "<=", "default_left": true, "missing_type": "None", "internal_value": 0.04177, "internal_weight": 3075.81, "internal_count": 15926, "left_child": {"leaf_index": 5, "leaf_value": 0.03612575380089419, "leaf_weight": 1661.28431598295, "leaf_count": 9668}, "right_child": {"split_index": 20, "split_feature": 4, "split_gain": 15.608499526977539, "threshold": 0.34948568651536743, "decision_type": "<=", "default_left": true, "missing_type": "None", "internal_value": 0.0483988, "internal_weight": 1414.52, "internal_count": 6258, "left_child": {"leaf_index": 9, "leaf_value": 0.049709043142484456, "leaf_weight": 1331.6502866315423, "leaf_count": 5935}, "right_child": {"leaf_index": 21, "leaf_value": 0.027344781355485556, "leaf_weight": 82.87289951229468, "leaf_count": 323}}}}}}}, {"tree_index": 8, "num_leaves": 31, "num_cat": 0, "shrinkage": 0.05, "tree_structure": {"split_index": 0, "split_feature": 1, "split_gain": 1687.0699462890625, "threshold": 12.584298506839653, "decision_type": "<=", "default_left": true, "missing_type": "None", "internal_value": 0, "internal_weight": 0, "internal_count": 335674, "left_child": {"split_index": 1, "split_feature": 1, "split_gain": 273.0469970703125, "threshold": 5.962816863721181, "decision_type": "<=", "default_left": true, "missing_type": "None", "internal_value": -0.00814623, "internal_weight": 24842.2, "internal_count": 230270, "left_child": {"split_index": 3, "split_feature": 2, "split_gain": 73.68710327148438, "threshold": 12.597013232138272, "decision_type": "<=", "default_left": true, "missing_type": "None", "internal_value": -0.0141004, "internal_weight": 10847.2, "internal_count": 110403, "left_child": {"split_index": 9, "split_feature": 4, "split_gain": 41.709800720214844, "threshold": 0.037257779114974555, "decision_type": "<=", "default_left": true, "missing_type": "None", "internal_value": -0.0149191, "internal_weight": 10435.3, "internal_count": 106530, "left_child": {"split_index": 19, "split_feature": 2, "split_gain": 12.024100303649902, "threshold": 5.454495159708553, "decision_type": "<=", "default_left": true, "missing_type": "None", "internal_value": -0.0172725, "internal_weight": 6713.94, "internal_count": 72786, "left_child": {"leaf_index": 0, "leaf_value": -0.017892541666401557, "leaf_weight": 6183.070608126145, "leaf_count": 66627}, "right_child": {"leaf_index": 20, "leaf_value": -0.010051241938195976, "leaf_weight": 530.8711750362418, "leaf_count": 6159}}, "right_child": {"split_index": 12, "split_feature": 4, "split_gain": 26.366899490356445, "threshold": 0.20383096152445987, "decision_type": "<=", "default_left": true, "missing_type": "None", "internal_value": -0.0106732, "internal_weight": 3721.4, "internal_count": 33744, "left_child": {"leaf_index": 10, "leaf_value": -0.011006288992167705, "leaf_weight": 3698.2300255139126, "leaf_count": 33585}, "right_child": {"leaf_index": 13, "leaf_value": 0.042502951757999355, "leaf_weight": 23.16609267820604, "leaf_count": 159}}}, "right_child": {"split_index": 29, "split_feature": 4,